{"learner":{"attributes":{},"feature_names":[],"feature_types":[],"gradient_booster":{"model":{"cats":{"enc":[],"feature_segments":[],"sorted_idx":[]},"gbtree_model_param":{"num_parallel_tree":"1","num_trees":"100"},"iteration_indptr":[0,1,2,3,4,5,6,7,8,9,10,11,12,13,14,15,16,17,18,19,20,21,22,23,24,25,26,27,28,29,30,31,32,33,34,35,36,37,38,39,40,41,42,43,44,45,46,47,48,49,50,51,52,53,54,55,56,57,58,59,60,61,62,63,64,65,66,67,68,69,70,71,72,73,74,75,76,77,78,79,80,81,82,83,84,85,86,87,88,89,90,91,92,93,94,95,96,97,98,99,100],"tree_info":[0,0,0,0,0,0,0,0,0,0,0,0,0,0,0,0,0,0,0,0,0,0,0,0,0,0,0,0,0,0,0,0,0,0,0,0,0,0,0,0,0,0,0,0,0,0,0,0,0,0,0,0,0,0,0,0,0,0,0,0,0,0,0,0,0,0,0,0,0,0,0,0,0,0,0,0,0,0,0,0,0,0,0,0,0,0,0,0,0,0,0,0,0,0,0,0,0,0,0,0],"trees":[{"base_weights":[-7.59839E-3,-9.010779E-1,8.4846324E-1,-1.1651678E0,-3.7377542E-1,4.432575E-1,1.3105024E0,-1.2481765E-1,-8.95837E-2,-5.483588E-1,-1.8686892E-1,1.8840179E-1,6.5552163E-1,1.1179268E0,1.5161203E-1,-6.425908E-2,-4.4646945E-2,-2.6340365E-1,-9.035552E-2,6.662921E-2,2.940274E-1,5.1582526E-2,7.409345E-2,9.510607E-2,1.2099028E-1,-2.940434E-2,-2.0116173E-2,-1.1966232E-2,-6.093804E-3,2.4834568E-2,1.267585E-1,2.267625E-2,3.4824435E-2,-8.960587E-5,4.9323468E-3,7.247417E-3,1.362322E-2],"categories":[],"categories_nodes":[],"categories_segments":[],"categories_sizes":[],"default_left":[0,0,0,0,0,0,0,0,0,0,0,0,0,0,0,0,0,0,0,0,0,0,0,0,0,0,0,0,0,0,0,0,0,0,0,0,0],"id":0,"left_children":[1,3,5,7,9,11,13,-1,-1,15,17,19,21,23,-1,-1,-1,25,27,29,31,-1,-1,-1,-1,-1,-1,-1,-1,33,35,-1,-1,-1,-1,-1,-1],"loss_changes":[8.2223865E2,7.2812775E1,1.0220343E2,6.7066956E0,5.6731796E0,1.5780933E1,8.441895E0,0E0,0E0,5.868149E-1,6.1883664E-1,1.7168198E0,1.5269089E0,9.3659973E-1,0E0,0E0,0E0,3.2389402E-2,2.7193308E-2,1.5768927E-1,1.8360758E-1,0E0,0E0,0E0,0E0,0E0,0E0,0E0,0E0,2.4618672E-2,3.4978092E-3,0E0,0E0,0E0,0E0,0E0,0E0],"parents":[2147483647,0,0,1,1,2,2,3,3,4,4,5,5,6,6,9,9,10,10,11,11,12,12,13,13,17,17,18,18,19,19,20,20,29,29,30,30],"right_children":[2,4,6,8,10,12,14,-1,-1,16,18,20,22,24,-1,-1,-1,26,28,30,32,-1,-1,-1,-1,-1,-1,-1,-1,34,36,-1,-1,-1,-1,-1,-1],"split_conditions":[-4.939313E-2,-7.7946347E-1,8.570386E-1,-1.0819743E0,-3.765889E-1,4.2078716E-1,1.309973E0,-1.2481765E-1,-8.95837E-2,-5.529388E-1,-1.7530943E-1,1.524811E-1,6.1190146E-1,1.0584217E0,1.5161203E-1,-6.425908E-2,-4.4646945E-2,-2.7591965E-1,-9.988215E-2,5.187767E-2,2.779908E-1,5.1582526E-2,7.409345E-2,9.510607E-2,1.2099028E-1,-2.940434E-2,-2.0116173E-2,-1.1966232E-2,-6.093804E-3,2.3321683E-2,1.0158946E-1,2.267625E-2,3.4824435E-2,-8.960587E-5,4.9323468E-3,7.247417E-3,1.362322E-2],"split_indices":[0,0,0,0,0,0,0,0,0,0,0,0,0,0,0,0,0,0,0,0,0,0,0,0,0,0,0,0,0,0,0,0,0,0,0,0,0],"split_type":[0,0,0,0,0,0,0,0,0,0,0,0,0,0,0,0,0,0,0,0,0,0,0,0,0,0,0,0,0,0,0,0,0,0,0,0,0],"sum_hessian":[1.073E3,5.25E2,5.48E2,3.49E2,1.76E2,2.93E2,2.55E2,2.64E2,8.5E1,9E1,8.6E1,1.34E2,1.59E2,1.35E2,1.2E2,4.4E1,4.6E1,4.7E1,3.9E1,6.3E1,7.1E1,6.3E1,9.6E1,5.2E1,8.3E1,2.9E1,1.8E1,1.8E1,2.1E1,3.8E1,2.5E1,3.4E1,3.7E1,1.9E1,1.9E1,5E0,2E1],"tree_param":{"num_deleted":"0","num_feature":"2","num_nodes":"37","size_leaf_vector":"1"}},{"base_weights":[7.7671497E-3,-8.589322E-1,5.411091E-1,-1.0403608E0,-4.562795E-1,1.5103514E-1,6.932964E-1,-1.0764523E-1,-8.5724786E-2,-6.2742524E-2,-3.5943088E-1,-1.5187727E-2,3.0565832E-2,7.8296477E-1,4.6150237E-1,-4.324754E-2,-2.9544879E-2,-4.6789674E-3,1.9560785E-3,5.130888E-2,8.98577E-1,3.4071034E-1,9.68733E-1,8.279716E-2,9.526215E-2,1.5790357E-1,4.7820455E-1,6.7913777E-1,1.08209886E-1,2.7176315E-2,-4.7382962E-2,5.915013E-2,3.736543E-2,7.20297E-2,1.543521E-2],"categories":[],"categories_nodes":[],"categories_segments":[],"categories_sizes":[],"default_left":[0,0,0,0,0,0,0,0,0,0,0,0,0,0,0,0,0,0,0,0,0,0,0,0,0,0,0,0,0,0,0,0,0,0,0],"id":1,"left_children":[1,3,5,7,9,11,13,-1,-1,-1,15,17,-1,19,21,-1,-1,-1,-1,-1,23,25,27,-1,-1,29,31,33,-1,-1,-1,-1,-1,-1,-1],"loss_changes":[5.0477637E2,2.9915222E1,4.002556E1,9.673157E-1,1.945837E0,4.913707E0,9.739975E0,0E0,0E0,0E0,2.7415085E-1,1.0304045E-1,0E0,1.0428085E1,8.125122E0,0E0,0E0,0E0,0E0,0E0,1.3851929E-1,2.7647305E0,1.186924E-1,0E0,0E0,3.725213E0,5.3707695E-1,1.04818344E-1,0E0,0E0,0E0,0E0,0E0,0E0,0E0],"parents":[2147483647,0,0,1,1,2,2,3,3,4,4,5,5,6,6,10,10,11,11,13,13,14,14,20,20,21,21,22,22,25,25,26,26,27,27],"right_children":[2,4,6,8,10,12,14,-1,-1,-1,16,18,-1,20,22,-1,-1,-1,-1,-1,24,26,28,-1,-1,30,32,34,-1,-1,-1,-1,-1,-1,-1],"split_conditions":[-3.331449E-1,-6.53266E-1,9.368324E-2,-7.5997305E-1,-5.46559E-1,-1.1973083E-1,9.4733953E-1,-1.0764523E-1,-8.5724786E-2,-6.2742524E-2,-4.3985194E-1,-2.2643787E-1,3.0565832E-2,3.0709732E-1,2.334531E0,-4.324754E-2,-2.9544879E-2,-4.6789674E-3,1.9560785E-3,5.130888E-2,5.205114E-1,1.3741677E0,2.654652E0,8.279716E-2,9.526215E-2,1.2674606E0,1.6942887E0,2.547945E0,1.08209886E-1,2.7176315E-2,-4.7382962E-2,5.915013E-2,3.736543E-2,7.20297E-2,1.543521E-2],"split_indices":[1,1,1,1,1,1,1,0,0,0,1,1,0,1,1,0,0,0,0,0,1,1,1,0,0,1,1,1,0,0,0,0,0,0,0],"split_type":[0,0,0,0,0,0,0,0,0,0,0,0,0,0,0,0,0,0,0,0,0,0,0,0,0,0,0,0,0,0,0,0,0,0,0],"sum_hessian":[1.09E3,4.15E2,6.75E2,2.85E2,1.3E2,1.9E2,4.85E2,2.34E2,5.1E1,4.5E1,8.5E1,9.2E1,9.8E1,3.48E2,1.37E2,3.7E1,4.8E1,4.8E1,4.4E1,1.06E2,2.42E2,1.12E2,2.5E1,1.12E2,1.3E2,4.9E1,6.3E1,9E0,1.6E1,4.2E1,7E0,2.8E1,3.5E1,8E0,1E0],"tree_param":{"num_deleted":"0","num_feature":"2","num_nodes":"35","size_leaf_vector":"1"}},{"base_weights":[-1.5012945E-4,-7.223229E-1,7.4212044E-1,-9.748386E-1,-2.8430644E-1,4.0950546E-1,1.1307554E0,-1.03992514E-1,-7.413589E-2,-4.4109976E-1,-1.3227175E-1,1.9414856E-1,5.6291366E-1,1.0088158E0,1.3788436E-1,-5.1033325E-2,-3.4514032E-2,-2.0918189E-1,-4.0105447E-2,1.04761586E-1,2.804041E-1,4.566925E-2,6.459495E-2,8.425125E-2,1.08311825E-1,-2.4249231E-2,-1.5327619E-2,-6.780604E-2,-8.425404E-3,6.589297E-2,1.4960587E-2,2.2811292E-2,3.1944446E-2,-8.860153E-3,-5.7137324E-3,1.0326275E-3,-1.2692054E-3,2.5244008E-3,7.899284E-3],"categories":[],"categories_nodes":[],"categories_segments":[],"categories_sizes":[],"default_left":[0,0,0,0,0,0,0,0,0,0,0,0,0,0,0,0,0,0,0,0,0,0,0,0,0,0,0,0,0,0,0,0,0,0,0,0,0,0,0],"id":2,"left_children":[1,3,5,7,9,11,13,-1,-1,15,17,19,21,23,-1,-1,-1,25,27,29,31,-1,-1,-1,-1,-1,-1,33,35,37,-1,-1,-1,-1,-1,-1,-1,-1,-1],"loss_changes":[5.859E2,6.0998627E1,6.921118E1,4.5629883E0,4.804613E0,9.5376625E0,6.11145E0,0E0,0E0,4.8822212E-1,7.359053E-1,9.1896963E-1,1.2044296E0,1.1880951E0,0E0,0E0,0E0,6.89795E-2,4.2428955E-2,9.8210275E-2,5.37014E-2,0E0,0E0,0E0,0E0,0E0,0E0,7.059425E-4,2.0512259E-3,1.664327E-2,0E0,0E0,0E0,0E0,0E0,0E0,0E0,0E0,0E0],"parents":[2147483647,0,0,1,1,2,2,3,3,4,4,5,5,6,6,9,9,10,10,11,11,12,12,13,13,17,17,18,18,19,19,20,20,27,27,28,28,29,29],"right_children":[2,4,6,8,10,12,14,-1,-1,16,18,20,22,24,-1,-1,-1,26,28,30,32,-1,-1,-1,-1,-1,-1,34,36,38,-1,-1,-1,-1,-1,-1,-1,-1,-1],"split_conditions":[2.3321683E-2,-7.7939945E-1,9.322583E-1,-1.081504E0,-3.5150182E-1,4.4908473E-1,1.4106308E0,-1.03992514E-1,-7.413589E-2,-5.276474E-1,-1.251141E-1,2.2771467E-1,6.805754E-1,1.1588985E0,1.3788436E-1,-5.1033325E-2,-3.4514032E-2,-2.3182775E-1,-4.939313E-2,1.5186706E-1,3.5308775E-1,4.566925E-2,6.459495E-2,8.425125E-2,1.08311825E-1,-2.4249231E-2,-1.5327619E-2,-9.988215E-2,-2.4302853E-2,5.0958097E-2,1.4960587E-2,2.2811292E-2,3.1944446E-2,-8.860153E-3,-5.7137324E-3,1.0326275E-3,-1.2692054E-3,2.5244008E-3,7.899284E-3],"split_indices":[0,0,0,0,0,0,0,0,0,0,0,0,0,0,0,0,0,0,0,0,0,0,0,0,0,0,0,0,0,0,0,0,0,0,0,0,0,0,0],"split_type":[0,0,0,0,0,0,0,0,0,0,0,0,0,0,0,0,0,0,0,0,0,0,0,0,0,0,0,0,0,0,0,0,0,0,0,0,0,0,0],"sum_hessian":[1.091E3,5.53E2,5.38E2,3.5E2,2.03E2,2.91E2,2.47E2,2.71E2,7.9E1,9.9E1,1.04E2,1.22E2,1.69E2,1.69E2,7.8E1,5.5E1,4.4E1,5.6E1,4.8E1,6.1E1,6.1E1,7.7E1,9.2E1,5.6E1,1.13E2,3.3E1,2.3E1,2.5E1,2.3E1,3.4E1,2.7E1,2.9E1,3.2E1,6E0,1.9E1,4E0,1.9E1,9E0,2.5E1],"tree_param":{"num_deleted":"0","num_feature":"2","num_nodes":"39","size_leaf_vector":"1"}},{"base_weights":[4.654221E-4,-6.9611204E-1,4.2700335E-1,-8.3558905E-1,-3.953092E-1,1.4156407E-1,5.911997E-1,-8.660784E-2,-7.099297E-2,-4.7218603E-1,-2.6499987E-2,-5.5593485E-3,2.6276124E-1,6.7435515E-1,4.2195854E-1,-5.3508323E-2,-3.9119445E-2,2.167557E-2,3.3199076E-2,4.900911E-2,7.186909E-1,1.546928E-1,5.697341E-1,6.621855E-2,7.585453E-2,2.5413883E-1,-5.3511538E-2,4.6508732E-1,8.863174E-2,3.5983123E-2,1.5493226E-2,5.7376474E-2,3.7379958E-2],"categories":[],"categories_nodes":[],"categories_segments":[],"categories_sizes":[],"default_left":[0,0,0,0,0,0,0,0,0,0,0,0,0,0,0,0,0,0,0,0,0,0,0,0,0,0,0,0,0,0,0,0,0],"id":3,"left_children":[1,3,5,7,9,11,13,-1,-1,15,-1,-1,17,19,21,-1,-1,-1,-1,-1,23,25,27,-1,-1,29,-1,31,-1,-1,-1,-1,-1],"loss_changes":[3.2623425E2,1.7164948E1,3.183348E1,4.7323608E-1,1.2172546E0,5.988343E0,5.7951355E0,0E0,0E0,2.1349144E-1,0E0,0E0,4.2170525E-1,2.0005798E0,5.638691E0,0E0,0E0,0E0,0E0,0E0,1.5663147E-2,3.7717245E0,2.6688175E0,0E0,0E0,4.3706322E-1,0E0,4.9983406E-1,0E0,0E0,0E0,0E0,0E0],"parents":[2147483647,0,0,1,1,2,2,3,3,4,4,5,5,6,6,9,9,12,12,13,13,14,14,20,20,21,21,22,22,25,25,27,27],"right_children":[2,4,6,8,10,12,14,-1,-1,16,-1,-1,18,20,22,-1,-1,-1,-1,-1,24,26,28,-1,-1,30,-1,32,-1,-1,-1,-1,-1],"split_conditions":[-3.331449E-1,-6.53266E-1,2.0039028E-1,-7.5997305E-1,-4.3985194E-1,-1.1973083E-1,9.4733953E-1,-8.660784E-2,-7.099297E-2,-5.46559E-1,-2.6499987E-2,-5.5593485E-3,9.368324E-2,3.0709732E-1,1.3741677E0,-5.3508323E-2,-3.9119445E-2,2.167557E-2,3.3199076E-2,4.900911E-2,5.205114E-1,1.2674606E0,2.654652E0,6.621855E-2,7.585453E-2,1.0540465E0,-5.3511538E-2,1.6942887E0,8.863174E-2,3.5983123E-2,1.5493226E-2,5.7376474E-2,3.7379958E-2],"split_indices":[1,1,1,1,1,1,1,0,0,1,0,0,1,1,1,0,0,0,0,0,1,1,1,0,0,1,0,1,0,0,0,0,0],"split_type":[0,0,0,0,0,0,0,0,0,0,0,0,0,0,0,0,0,0,0,0,0,0,0,0,0,0,0,0,0,0,0,0,0],"sum_hessian":[1.096E3,4.16E2,6.8E2,2.83E2,1.33E2,2.49E2,4.31E2,2.23E2,6E1,8.2E1,5.1E1,9.5E1,1.54E2,2.87E2,1.44E2,4.3E1,3.9E1,9.5E1,5.9E1,5.8E1,2.29E2,5.2E1,9.2E1,1.02E2,1.27E2,4.6E1,6E0,7.1E1,2.1E1,2.1E1,2.5E1,3E1,4.1E1],"tree_param":{"num_deleted":"0","num_feature":"2","num_nodes":"33","size_leaf_vector":"1"}},{"base_weights":[2.4826457E-3,-6.149107E-1,6.291207E-1,-8.112204E-1,-2.5572258E-1,3.187971E-1,9.7512245E-1,-8.764154E-2,-6.295961E-2,-3.5548347E-1,-9.049245E-2,1.3254116E-1,4.4927546E-1,8.834771E-1,1.24759436E-1,-4.4190366E-2,-2.8052567E-2,-1.3785186E-1,-3.0721018E-2,6.2033992E-2,1.9311038E-1,3.546824E-2,5.2712925E-2,7.149236E-2,9.346969E-2,-1.4717027E-2,-9.905896E-3,-4.5038503E-2,-1.5492224E-2,4.149846E-2,7.972229E-3,1.3629126E-2,2.163683E-2,-2.8033182E-3,-7.1542733E-3,4.9218396E-3,-3.1715573E-3,2.5792273E-3,4.8791217E-3],"categories":[],"categories_nodes":[],"categories_segments":[],"categories_sizes":[],"default_left":[0,0,0,0,0,0,0,0,0,0,0,0,0,0,0,0,0,0,0,0,0,0,0,0,0,0,0,0,0,0,0,0,0,0,0,0,0,0,0],"id":4,"left_children":[1,3,5,7,9,11,13,-1,-1,15,17,19,21,23,-1,-1,-1,25,27,29,31,-1,-1,-1,-1,-1,-1,33,35,37,-1,-1,-1,-1,-1,-1,-1,-1,-1],"loss_changes":[4.162852E2,3.801013E1,5.7026047E1,3.5925446E0,3.149147E0,6.8180256E0,5.1904144E0,0E0,0E0,6.533785E-1,2.0523983E-1,4.9194717E-1,1.0355301E0,9.8934937E-1,0E0,0E0,0E0,2.424717E-4,6.7155547E-3,1.7032996E-2,5.376506E-2,0E0,0E0,0E0,0E0,0E0,0E0,5.656548E-3,2.0457802E-2,1.9487217E-3,0E0,0E0,0E0,0E0,0E0,0E0,0E0,0E0,0E0],"parents":[2147483647,0,0,1,1,2,2,3,3,4,4,5,5,6,6,9,9,10,10,11,11,12,12,13,13,17,17,18,18,19,19,20,20,27,27,28,28,29,29],"right_children":[2,4,6,8,10,12,14,-1,-1,16,18,20,22,24,-1,-1,-1,26,28,30,32,-1,-1,-1,-1,-1,-1,34,36,38,-1,-1,-1,-1,-1,-1,-1,-1,-1],"split_conditions":[2.3321683E-2,-7.7939945E-1,9.322583E-1,-1.1318178E0,-2.7598593E-1,4.0372965E-1,1.5110615E0,-8.764154E-2,-6.295961E-2,-5.5114657E-1,-9.965701E-2,2.0198545E-1,6.554091E-1,1.1588985E0,1.24759436E-1,-4.4190366E-2,-2.8052567E-2,-1.251141E-1,-4.939313E-2,1.01726815E-1,2.5267085E-1,3.546824E-2,5.2712925E-2,7.149236E-2,9.346969E-2,-1.4717027E-2,-9.905896E-3,-7.444556E-2,-2.4302853E-2,5.0958097E-2,7.972229E-3,1.3629126E-2,2.163683E-2,-2.8033182E-3,-7.1542733E-3,4.9218396E-3,-3.1715573E-3,2.5792273E-3,4.8791217E-3],"split_indices":[0,0,0,0,0,0,0,0,0,0,0,0,0,0,0,0,0,0,0,0,0,0,0,0,0,0,0,0,0,0,0,0,0,0,0,0,0,0,0],"split_type":[0,0,0,0,0,0,0,0,0,0,0,0,0,0,0,0,0,0,0,0,0,0,0,0,0,0,0,0,0,0,0,0,0,0,0,0,0,0,0],"sum_hessian":[1.074E3,5.41E2,5.33E2,3.49E2,1.92E2,2.82E2,2.51E2,2.54E2,9.5E1,1.19E2,7.3E1,1.17E2,1.65E2,1.91E2,6E1,5.3E1,6.6E1,4E1,3.3E1,5.5E1,6.2E1,7.7E1,8.8E1,4.8E1,1.43E2,3E1,1E1,1.6E1,1.7E1,2.7E1,2.8E1,2E1,4.2E1,1.1E1,5E0,3E0,1.4E1,1E1,1.7E1],"tree_param":{"num_deleted":"0","num_feature":"2","num_nodes":"39","size_leaf_vector":"1"}},{"base_weights":[1.9251188E-3,-5.520572E-1,5.703466E-1,-7.375597E-1,-2.2537355E-1,2.9928762E-1,8.921831E-1,-7.782048E-2,-5.355494E-2,-3.2156923E-1,-6.628481E-2,1.2137793E-1,4.040201E-1,7.872093E-1,1.1109934E-1,-3.977096E-2,-2.5805807E-1,-1.1378631E-1,-2.3991043E-2,5.337936E-2,1.7316103E-1,3.3635065E-1,4.9788173E-2,6.6176675E-2,8.4192485E-2,-2.8811777E-2,-2.2437157E-2,-1.2227178E-2,-6.880319E-2,-4.2943757E-2,-9.958665E-4,1.6761621E-2,6.119931E-3,1.4178718E-2,2.0190021E-2,2.8920356E-2,3.7081983E-2,-3.5011352E-3,-8.207603E-3,-3.0796218E-3,-6.6310107E-3,1.1935596E-3,-2.6716525E-3,4.2570676E-3,-1.7561564E-3],"categories":[],"categories_nodes":[],"categories_segments":[],"categories_sizes":[],"default_left":[0,0,0,0,0,0,0,0,0,0,0,0,0,0,0,0,0,0,0,0,0,0,0,0,0,0,0,0,0,0,0,0,0,0,0,0,0,0,0,0,0,0,0,0,0],"id":5,"left_children":[1,3,5,7,9,11,13,-1,-1,15,17,19,21,23,-1,-1,25,27,29,31,33,35,-1,-1,-1,-1,-1,-1,37,39,41,43,-1,-1,-1,-1,-1,-1,-1,-1,-1,-1,-1,-1,-1],"loss_changes":[3.4260626E2,3.322473E1,4.657907E1,2.4651794E0,3.054718E0,5.410408E0,4.7529144E0,0E0,0E0,5.0183773E-1,1.5196452E-1,3.780862E-1,1.0012264E0,6.0279846E-1,0E0,0E0,7.249832E-3,5.3285956E-3,1.8261718E-2,1.3005301E-2,2.72758E-2,7.151985E-2,0E0,0E0,0E0,0E0,0E0,0E0,7.145107E-4,4.486304E-3,6.9709923E-3,9.606097E-3,0E0,0E0,0E0,0E0,0E0,0E0,0E0,0E0,0E0,0E0,0E0,0E0,0E0],"parents":[2147483647,0,0,1,1,2,2,3,3,4,4,5,5,6,6,9,9,10,10,11,11,12,12,13,13,16,16,17,17,18,18,19,19,20,20,21,21,28,28,29,29,30,30,31,31],"right_children":[2,4,6,8,10,12,14,-1,-1,16,18,20,22,24,-1,-1,26,28,30,32,34,36,-1,-1,-1,-1,-1,-1,38,40,42,44,-1,-1,-1,-1,-1,-1,-1,-1,-1,-1,-1,-1,-1],"split_conditions":[2.6101455E-2,-7.7946347E-1,9.3252933E-1,-9.8083943E-1,-2.7598593E-1,4.0372965E-1,1.4610835E0,-7.782048E-2,-5.355494E-2,-5.5114657E-1,-9.988215E-2,2.0198545E-1,7.059053E-1,1.184084E0,1.1109934E-1,-3.977096E-2,-4.2678243E-1,-1.251141E-1,-4.939313E-2,5.0958097E-2,3.031584E-1,5.5402553E-1,4.9788173E-2,6.6176675E-2,8.4192485E-2,-2.8811777E-2,-2.2437157E-2,-1.2227178E-2,-1.2482352E-1,-7.448068E-2,1.0355613E-3,2.6322711E-2,6.119931E-3,1.4178718E-2,2.0190021E-2,2.8920356E-2,3.7081983E-2,-3.5011352E-3,-8.207603E-3,-3.0796218E-3,-6.6310107E-3,1.1935596E-3,-2.6716525E-3,4.2570676E-3,-1.7561564E-3],"split_indices":[0,0,0,0,0,0,0,0,0,0,0,0,0,0,0,0,0,0,0,0,0,0,0,0,0,0,0,0,0,0,0,0,0,0,0,0,0,0,0,0,0,0,0,0,0],"split_type":[0,0,0,0,0,0,0,0,0,0,0,0,0,0,0,0,0,0,0,0,0,0,0,0,0,0,0,0,0,0,0,0,0,0,0,0,0,0,0,0,0,0,0,0,0],"sum_hessian":[1.086E3,5.5E2,5.36E2,3.5E2,2E2,2.92E2,2.44E2,2.89E2,6.1E1,1.24E2,7.6E1,1.09E2,1.83E2,1.68E2,7.6E1,5.4E1,7E1,3.5E1,4.1E1,4.8E1,6.1E1,1.09E2,7.4E1,5.5E1,1.13E2,3.3E1,3.7E1,2.8E1,7E0,2.2E1,1.9E1,9E0,3.9E1,3.2E1,2.9E1,5E1,5.9E1,3E0,4E0,1.6E1,6E0,1.3E1,6E0,5E0,4E0],"tree_param":{"num_deleted":"0","num_feature":"2","num_nodes":"45","size_leaf_vector":"1"}},{"base_weights":[6.6365893E-3,-4.993274E-1,3.2508156E-1,-6.080326E-1,-2.51451E-1,7.327592E-2,4.1711652E-1,-6.2293928E-2,-5.2925944E-2,-3.1006327E-2,-1.580275E-2,-4.344738E-3,1.5834074E-1,2.8657442E-2,4.5354363E-1,-1.6048942E-3,7.962794E-4,1.35465935E-2,1.8126126E-2,5.1744163E-1,3.0250803E-1,4.7162067E-2,5.4789957E-2,2.0700048E-1,5.990506E-2,4.3830923E-3,2.9211024E-2],"categories":[],"categories_nodes":[],"categories_segments":[],"categories_sizes":[],"default_left":[0,0,0,0,0,0,0,0,0,0,0,0,0,0,0,0,0,0,0,0,0,0,0,0,0,0,0],"id":6,"left_children":[1,3,5,7,9,11,13,-1,-1,-1,-1,15,17,-1,19,-1,-1,-1,-1,21,23,-1,-1,25,-1,-1,-1],"loss_changes":[1.7143468E2,1.09217E1,1.5102669E1,4.966736E-3,6.4642334E-1,1.1627786E0,2.143036E0,0E0,0E0,0E0,0E0,1.3524432E-2,1.9486666E-2,0E0,3.4336014E0,0E0,0E0,0E0,0E0,1.0445404E-1,3.0763884E0,0E0,0E0,1.1953931E0,0E0,0E0,0E0],"parents":[2147483647,0,0,1,1,2,2,3,3,4,4,5,5,6,6,11,11,12,12,14,14,19,19,20,20,23,23],"right_children":[2,4,6,8,10,12,14,-1,-1,-1,-1,16,18,-1,20,-1,-1,-1,-1,22,24,-1,-1,26,-1,-1,-1],"split_conditions":[-3.331449E-1,-6.53266E-1,9.368324E-2,-7.5997305E-1,-4.3985194E-1,-1.1973083E-1,3.0709732E-1,-6.2293928E-2,-5.2925944E-2,-3.1006327E-2,-1.580275E-2,-2.2643787E-1,-1.3023795E-2,2.8657442E-2,1.0540465E0,-1.6048942E-3,7.962794E-4,1.35465935E-2,1.8126126E-2,5.205114E-1,2.334531E0,4.7162067E-2,5.4789957E-2,1.3741677E0,5.990506E-2,4.3830923E-3,2.9211024E-2],"split_indices":[1,1,1,1,1,1,1,0,0,0,0,1,1,0,1,0,0,0,0,1,1,0,0,1,0,0,0],"split_type":[0,0,0,0,0,0,0,0,0,0,0,0,0,0,0,0,0,0,0,0,0,0,0,0,0,0,0],"sum_hessian":[1.062E3,4.1E2,6.52E2,2.84E2,1.26E2,1.75E2,4.77E2,2.33E2,5.1E1,7.6E1,5E1,9.2E1,8.3E1,1.06E2,3.71E2,4.7E1,4.5E1,4.5E1,3.8E1,2.59E2,1.12E2,1.1E2,1.49E2,8.6E1,2.6E1,3E1,5.6E1],"tree_param":{"num_deleted":"0","num_feature":"2","num_nodes":"27","size_leaf_vector":"1"}},{"base_weights":[-6.1366986E-4,-4.6294954E-1,4.7826648E-1,-6.131594E-1,-1.949253E-1,2.2324097E-1,7.3534435E-1,-6.637177E-2,-4.8449215E-1,-2.6810807E-1,-6.7682676E-2,8.844033E-2,3.209444E-1,6.5187955E-1,9.859862E-2,-5.3608175E-2,-4.2137966E-2,-3.3430126E-2,-2.1547053E-2,-1.1512649E-2,-2.6688237E-2,4.3231834E-2,1.3449141E-1,2.5450705E-2,3.8163725E-2,5.2894324E-2,7.107572E-2,-2.158973E-2,-8.407277E-3,3.8329095E-2,6.621048E-3,1.16766684E-1,1.6828543E-2,-3.5964937E-3,3.808266E-4,4.285906E-3,3.7323195E-4,1.1907871E-2,4.855893E-3],"categories":[],"categories_nodes":[],"categories_segments":[],"categories_sizes":[],"default_left":[0,0,0,0,0,0,0,0,0,0,0,0,0,0,0,0,0,0,0,0,0,0,0,0,0,0,0,0,0,0,0,0,0,0,0,0,0,0,0],"id":7,"left_children":[1,3,5,7,9,11,13,-1,15,17,19,21,23,25,-1,-1,-1,-1,-1,-1,27,29,31,-1,-1,-1,-1,33,-1,35,-1,37,-1,-1,-1,-1,-1,-1,-1],"loss_changes":[2.3933716E2,2.2023407E1,3.4648956E1,1.968277E0,1.8349352E0,3.5013037E0,4.880066E0,0E0,1.0946846E-1,3.6698246E-1,1.4085248E-1,2.3152238E-1,5.27874E-1,1.0789261E0,0E0,0E0,0E0,0E0,0E0,0E0,1.018049E-2,4.109055E-3,1.3893247E-2,0E0,0E0,0E0,0E0,1.43759195E-2,0E0,7.832862E-3,0E0,5.2559376E-4,0E0,0E0,0E0,0E0,0E0,0E0,0E0],"parents":[2147483647,0,0,1,1,2,2,3,3,4,4,5,5,6,6,8,8,9,9,10,10,11,11,12,12,13,13,20,20,21,21,22,22,27,27,29,29,31,31],"right_children":[2,4,6,8,10,12,14,-1,16,18,20,22,24,26,-1,-1,-1,-1,-1,-1,28,30,32,-1,-1,-1,-1,34,-1,36,-1,38,-1,-1,-1,-1,-1,-1,-1],"split_conditions":[1.0355613E-3,-7.7946347E-1,8.570386E-1,-1.1822137E0,-2.7591965E-1,4.0372965E-1,1.5110615E0,-6.637177E-2,-9.556289E-1,-5.5114657E-1,-9.988215E-2,2.0198545E-1,6.439697E-1,1.1588985E0,9.859862E-2,-5.3608175E-2,-4.2137966E-2,-3.3430126E-2,-2.1547053E-2,-1.1512649E-2,9.7671E-4,1.524811E-1,3.5308775E-1,2.5450705E-2,3.8163725E-2,5.2894324E-2,7.107572E-2,-4.939313E-2,-8.407277E-3,1.5186706E-1,6.621048E-3,3.2884723E-1,1.6828543E-2,-3.5964937E-3,3.808266E-4,4.285906E-3,3.7323195E-4,1.1907871E-2,4.855893E-3],"split_indices":[0,0,0,0,0,0,0,0,0,0,0,0,0,0,0,0,0,0,0,0,0,0,0,0,0,0,0,0,0,0,0,0,0,0,0,0,0,0,0],"split_type":[0,0,0,0,0,0,0,0,0,0,0,0,0,0,0,0,0,0,0,0,0,0,0,0,0,0,0,0,0,0,0,0,0,0,0,0,0,0,0],"sum_hessian":[1.079E3,5.49E2,5.3E2,3.51E2,1.98E2,2.67E2,2.63E2,2.49E2,1.02E2,1.25E2,7.3E1,1.13E2,1.54E2,2E2,6.3E1,5.2E1,5E1,5.3E1,7.2E1,3.3E1,4E1,5.8E1,5.5E1,7.6E1,7.8E1,6.8E1,1.32E2,3.8E1,2E0,5E1,8E0,3.9E1,1.6E1,2.4E1,1.4E1,4.4E1,6E0,3.7E1,2E0],"tree_param":{"num_deleted":"0","num_feature":"2","num_nodes":"39","size_leaf_vector":"1"}},{"base_weights":[2.6678795E-3,-3.6519438E-1,2.7372003E-1,-4.8493597E-1,-1.7998756E-1,1.0368913E-1,3.2328847E-1,-5.319608E-2,-4.541261E-2,-2.5390867E-2,-1.103517E-1,3.0894917E-5,1.4813952E-2,3.5415882E-1,2.5955212E-1,-1.5333086E-2,-6.030193E-3,2.60384E-1,4.0451157E-1,2.0701401E-1,4.838194E-1,2.3124443E-2,2.8955821E-2,3.8394492E-2,5.2374788E-2,1.7150222E-1,2.4611805E-1,3.7715718E-1,5.7877928E-2,2.1607634E-2,-9.937704E-3,3.4061152E-2,1.6619114E-2,4.2957492E-2,9.940582E-3],"categories":[],"categories_nodes":[],"categories_segments":[],"categories_sizes":[],"default_left":[0,0,0,0,0,0,0,0,0,0,0,0,0,0,0,0,0,0,0,0,0,0,0,0,0,0,0,0,0,0,0,0,0,0,0],"id":8,"left_children":[1,3,5,7,9,11,13,-1,-1,-1,15,-1,-1,17,19,-1,-1,21,23,25,27,-1,-1,-1,-1,29,31,33,-1,-1,-1,-1,-1,-1,-1],"loss_changes":[1.0858428E2,1.0158474E1,5.2509384E0,1.6409302E-1,9.139838E-1,6.570804E-1,8.6234665E-1,0E0,0E0,0E0,1.972593E-1,0E0,0E0,1.4245453E0,1.8086205E0,0E0,0E0,3.165531E-2,3.114395E-1,1.4248085E-1,8.556795E-2,0E0,0E0,0E0,0E0,9.028897E-1,4.0410018E-1,2.0480227E-1,0E0,0E0,0E0,0E0,0E0,0E0,0E0],"parents":[2147483647,0,0,1,1,2,2,3,3,4,4,5,5,6,6,10,10,13,13,14,14,17,17,18,18,19,19,20,20,25,25,26,26,27,27],"right_children":[2,4,6,8,10,12,14,-1,-1,-1,16,-1,-1,18,20,-1,-1,22,24,26,28,-1,-1,-1,-1,30,32,34,-1,-1,-1,-1,-1,-1,-1],"split_conditions":[-2.2643787E-1,-6.53266E-1,9.368324E-2,-9.733871E-1,-4.3985194E-1,-1.1973083E-1,8.406325E-1,-5.319608E-2,-4.541261E-2,-2.5390867E-2,-3.331449E-1,3.0894917E-5,1.4813952E-2,3.0709732E-1,2.334531E0,-1.5333086E-2,-6.030193E-3,2.0039028E-1,7.3392546E-1,1.3741677E0,2.9747732E0,2.3124443E-2,2.8955821E-2,3.8394492E-2,5.2374788E-2,1.2674606E0,1.6942887E0,2.7613592E0,5.7877928E-2,2.1607634E-2,-9.937704E-3,3.4061152E-2,1.6619114E-2,4.2957492E-2,9.940582E-3],"split_indices":[1,1,1,1,1,1,1,0,0,0,1,0,0,1,1,0,0,1,1,1,1,0,0,0,0,1,1,1,0,0,0,0,0,0,0],"split_type":[0,0,0,0,0,0,0,0,0,0,0,0,0,0,0,0,0,0,0,0,0,0,0,0,0,0,0,0,0,0,0,0,0,0,0],"sum_hessian":[1.087E3,4.61E2,6.26E2,2.79E2,1.82E2,1.42E2,4.84E2,1.04E2,1.75E2,8.7E1,9.5E1,4.3E1,9.9E1,3.23E2,1.61E2,5E1,4.5E1,1.15E2,2.08E2,1.32E2,2.9E1,6.2E1,5.3E1,1.81E2,2.7E1,7.2E1,6E1,1.6E1,1.3E1,6.2E1,1E1,2.6E1,3.4E1,1.3E1,3E0],"tree_param":{"num_deleted":"0","num_feature":"2","num_nodes":"35","size_leaf_vector":"1"}},{"base_weights":[1.0043894E-2,-3.5253102E-1,4.362339E-1,-5.175165E-1,-1.16049446E-1,2.4696013E-1,6.693217E-1,-5.5562984E-2,-4.042135E-1,-2.1548975E-1,-2.7440289E-2,1.4372508E-1,3.363886E-1,5.9311616E-1,8.755004E-2,-4.447726E-2,-3.5663057E-2,-2.7155895E-2,-1.7229669E-1,-9.878198E-2,4.1301195E-3,9.808064E-2,2.0065937E-2,2.8232029E-2,4.1490946E-2,5.0801594E-2,6.2733136E-2,-3.464453E-3,-1.7388143E-2,-7.5090356E-2,-1.1976842E-1,-1.6168062E-2,1.9571275E-2,6.614986E-2,1.1762252E-2,-8.362107E-3,-1.7929528E-3,-1.4424004E-2,-6.808994E-3,9.493918E-3,-2.4739783E-3,2.7560424E-3,1.9717748E-4,4.610673E-3,7.5327116E-3],"categories":[],"categories_nodes":[],"categories_segments":[],"categories_sizes":[],"default_left":[0,0,0,0,0,0,0,0,0,0,0,0,0,0,0,0,0,0,0,0,0,0,0,0,0,0,0,0,0,0,0,0,0,0,0,0,0,0,0,0,0,0,0,0,0],"id":9,"left_children":[1,3,5,7,9,11,13,-1,15,17,19,21,23,25,-1,-1,-1,-1,27,29,31,33,-1,-1,-1,-1,-1,-1,-1,35,37,39,41,43,-1,-1,-1,-1,-1,-1,-1,-1,-1,-1,-1],"loss_changes":[1.6472377E2,2.2413177E1,2.145224E1,1.2393265E0,2.0911815E0,2.4627953E0,2.921646E0,0E0,1.3144493E-2,2.2445297E-1,2.8644836E-1,3.1295705E-1,4.9845886E-1,1.5591812E-1,0E0,0E0,0E0,0E0,8.37338E-3,1.0397434E-2,2.8211463E-2,3.777027E-2,0E0,0E0,0E0,0E0,0E0,0E0,0E0,8.740783E-3,1.4207184E-2,3.9491605E-2,7.116515E-3,2.0451397E-3,0E0,0E0,0E0,0E0,0E0,0E0,0E0,0E0,0E0,0E0,0E0],"parents":[2147483647,0,0,1,1,2,2,3,3,4,4,5,5,6,6,8,8,9,9,10,10,11,11,12,12,13,13,18,18,19,19,20,20,21,21,29,29,30,30,31,31,32,32,33,33],"right_children":[2,4,6,8,10,12,14,-1,16,18,20,22,24,26,-1,-1,-1,-1,28,30,32,34,-1,-1,-1,-1,-1,-1,-1,36,38,40,42,44,-1,-1,-1,-1,-1,-1,-1,-1,-1,-1,-1],"split_conditions":[1.524811E-1,-7.543194E-1,1.0580786E0,-1.1318178E0,-2.7598593E-1,5.79975E-1,1.5614756E0,-5.5562984E-2,-9.243011E-1,-5.5285287E-1,-9.988215E-2,4.0372965E-1,8.0661887E-1,1.2345926E0,8.755004E-2,-4.447726E-2,-3.5663057E-2,-2.7155895E-2,-5.5114657E-1,-2.0012125E-1,2.3321683E-2,2.5267085E-1,2.0065937E-2,2.8232029E-2,4.1490946E-2,5.0801594E-2,6.2733136E-2,-3.464453E-3,-1.7388143E-2,-2.0061381E-1,-1.251141E-1,-9.965701E-2,1.2688448E-1,2.0236439E-1,1.1762252E-2,-8.362107E-3,-1.7929528E-3,-1.4424004E-2,-6.808994E-3,9.493918E-3,-2.4739783E-3,2.7560424E-3,1.9717748E-4,4.610673E-3,7.5327116E-3],"split_indices":[0,0,0,0,0,0,0,0,0,0,0,0,0,0,0,0,0,0,0,0,0,0,0,0,0,0,0,0,0,0,0,0,0,0,0,0,0,0,0,0,0,0,0,0,0],"split_type":[0,0,0,0,0,0,0,0,0,0,0,0,0,0,0,0,0,0,0,0,0,0,0,0,0,0,0,0,0,0,0,0,0,0,0,0,0,0,0,0,0,0,0,0,0],"sum_hessian":[1.064E3,5.75E2,4.89E2,3.38E2,2.37E2,2.71E2,2.18E2,2.5E2,8.8E1,1.11E2,1.26E2,1.27E2,1.44E2,1.62E2,5.6E1,4.3E1,4.5E1,4.6E1,6.5E1,3.8E1,8.8E1,7.2E1,5.5E1,8.8E1,5.6E1,5.1E1,1.11E2,1E0,6.4E1,2E1,1.8E1,3.8E1,5E1,2.9E1,4.3E1,1.7E1,3E0,1.1E1,7E0,2E0,3.6E1,3.4E1,1.6E1,1.1E1,1.8E1],"tree_param":{"num_deleted":"0","num_feature":"2","num_nodes":"45","size_leaf_vector":"1"}},{"base_weights":[1.96684E-3,-3.4956998E-1,3.6005852E-1,-4.624187E-1,-1.2503926E-1,1.9227767E-1,5.9650403E-1,-5.1108938E-2,-3.6566105E-1,-1.8831241E-1,-5.0747618E-2,6.908273E-2,2.7189595E-1,5.3521764E-1,8.019598E-2,-4.1412212E-2,-3.2297064E-2,-2.174908E-2,-1.5536778E-1,-8.7120585E-2,-1.7225025E-2,2.6209466E-2,1.002782E-1,2.3657478E-1,3.6421727E-2,4.7035675E-2,5.807184E-2,-1.0122834E-2,-1.6182704E-2,-9.178279E-2,-5.136372E-3,4.1766252E-4,-2.4187831E-2,3.3054497E-2,4.2911917E-3,7.657447E-2,1.347921E-2,1.9288456E-2,2.5705054E-2,-7.398711E-3,-1.3497176E-2,-1.7258896E-3,1.5832443E-3,-6.110934E-3,-9.928573E-4,2.6308005E-3,4.7166194E-3,-2.2456162E-3,4.369702E-3,8.486162E-3,5.9429207E-3],"categories":[],"categories_nodes":[],"categories_segments":[],"categories_sizes":[],"default_left":[0,0,0,0,0,0,0,0,0,0,0,0,0,0,0,0,0,0,0,0,0,0,0,0,0,0,0,0,0,0,0,0,0,0,0,0,0,0,0,0,0,0,0,0,0,0,0,0,0,0,0],"id":10,"left_children":[1,3,5,7,9,11,13,-1,15,17,19,21,23,25,-1,-1,-1,-1,27,29,31,33,35,37,-1,-1,-1,-1,-1,39,-1,41,43,45,47,49,-1,-1,-1,-1,-1,-1,-1,-1,-1,-1,-1,-1,-1,-1,-1],"loss_changes":[1.3620477E2,1.3776726E1,2.1148972E1,1.5225754E0,8.55366E-1,3.0709152E0,2.3661194E0,0E0,1.2485504E-1,6.1374903E-2,1.0336053E-1,1.6455323E-1,5.3666687E-1,2.403717E-1,0E0,0E0,0E0,0E0,1.1035204E-3,2.1206737E-3,5.6608636E-3,7.959846E-3,4.8582137E-2,7.655668E-2,0E0,0E0,0E0,0E0,0E0,1.691404E-2,0E0,4.0879743E-3,1.676689E-2,2.6625358E-3,1.573729E-2,1.3505816E-3,0E0,0E0,0E0,0E0,0E0,0E0,0E0,0E0,0E0,0E0,0E0,0E0,0E0,0E0,0E0],"parents":[2147483647,0,0,1,1,2,2,3,3,4,4,5,5,6,6,8,8,9,9,10,10,11,11,12,12,13,13,18,18,19,19,20,20,21,21,22,22,23,23,29,29,31,31,32,32,33,33,34,34,35,35],"right_children":[2,4,6,8,10,12,14,-1,16,18,20,22,24,26,-1,-1,-1,-1,28,30,32,34,36,38,-1,-1,-1,-1,-1,40,-1,42,44,46,48,50,-1,-1,-1,-1,-1,-1,-1,-1,-1,-1,-1,-1,-1,-1,-1],"split_conditions":[2.3321683E-2,-6.786929E-1,1.0321008E0,-1.232549E0,-2.7598593E-1,4.4908473E-1,1.5614756E0,-5.1108938E-2,-9.556289E-1,-4.5233804E-1,-9.988215E-2,2.0198545E-1,8.31586E-1,1.284119E0,8.019598E-2,-4.1412212E-2,-3.2297064E-2,-2.174908E-2,-4.269769E-1,-1.251141E-1,-7.448068E-2,1.5186706E-1,3.5308775E-1,6.1190146E-1,3.6421727E-2,4.7035675E-2,5.807184E-2,-1.0122834E-2,-1.6182704E-2,-1.7176431E-1,-5.136372E-3,-7.458559E-2,-4.939313E-2,1.2684895E-1,1.7721535E-1,2.779908E-1,1.347921E-2,1.9288456E-2,2.5705054E-2,-7.398711E-3,-1.3497176E-2,-1.7258896E-3,1.5832443E-3,-6.110934E-3,-9.928573E-4,2.6308005E-3,4.7166194E-3,-2.2456162E-3,4.369702E-3,8.486162E-3,5.9429207E-3],"split_indices":[0,0,0,0,0,0,0,0,0,0,0,0,0,0,0,0,0,0,0,0,0,0,0,0,0,0,0,0,0,0,0,0,0,0,0,0,0,0,0,0,0,0,0,0,0,0,0,0,0,0,0],"split_type":[0,0,0,0,0,0,0,0,0,0,0,0,0,0,0,0,0,0,0,0,0,0,0,0,0,0,0,0,0,0,0,0,0,0,0,0,0,0,0,0,0,0,0,0,0,0,0,0,0,0,0],"sum_hessian":[1.08E3,5.45E2,5.35E2,3.62E2,1.83E2,3.14E2,2.21E2,2.38E2,1.24E2,9.8E1,8.5E1,1.24E2,1.9E2,1.73E2,4.8E1,5.4E1,7E1,4.9E1,4.9E1,4E1,4.5E1,5.3E1,7.1E1,1.4E2,5E1,7.6E1,9.7E1,7E0,4.2E1,3.4E1,6E0,1.3E1,3.2E1,4E1,1.3E1,4.4E1,2.7E1,4.8E1,9.2E1,2.6E1,8E0,6E0,7E0,8E0,2.4E1,2.9E1,1.1E1,8E0,5E0,2.7E1,1.7E1],"tree_param":{"num_deleted":"0","num_feature":"2","num_nodes":"51","size_leaf_vector":"1"}},{"base_weights":[1.4236405E-2,-3.0026245E-1,3.457245E-1,-4.070423E-1,-1.0028645E-1,1.9509129E-1,5.452839E-1,-4.3934934E-2,-2.9258339E-2,-1.6906896E-1,-3.2554038E-2,1.01345904E-1,2.671175E-1,4.9306098E-1,7.43457E-2,-2.0016055E-1,-1.5310061E-1,-7.320686E-2,-5.801343E-3,5.796922E-2,1.4999911E-2,2.1347567E-2,3.3277255E-2,4.333469E-2,5.298356E-2,-9.400836E-3,-2.1287596E-2,-1.0705364E-1,-1.5909072E-2,-5.973686E-2,-9.395566E-2,-2.9023029E-2,2.2273448E-3,3.8741242E-2,7.373871E-2,-1.2734607E-2,-5.72335E-3,-7.500733E-3,2.2454672E-3,-1.1700722E-2,-6.2041082E-3,-1.0154642E-3,-6.850256E-3,6.2327143E-3,-4.8128027E-4,5.359466E-3,3.2355243E-3,8.56115E-3,5.8178985E-3],"categories":[],"categories_nodes":[],"categories_segments":[],"categories_sizes":[],"default_left":[0,0,0,0,0,0,0,0,0,0,0,0,0,0,0,0,0,0,0,0,0,0,0,0,0,0,0,0,0,0,0,0,0,0,0,0,0,0,0,0,0,0,0,0,0,0,0,0,0],"id":11,"left_children":[1,3,5,7,9,11,13,-1,-1,15,17,19,21,23,-1,25,27,29,31,33,-1,-1,-1,-1,-1,-1,-1,35,-1,37,39,41,43,45,47,-1,-1,-1,-1,-1,-1,-1,-1,-1,-1,-1,-1,-1,-1],"loss_changes":[1.1478169E2,1.2023857E1,1.600592E1,1.232254E0,9.1694E-1,2.0458317E0,2.0137482E0,0E0,0E0,1.8010378E-2,1.0942013E-1,2.7621055E-1,5.382414E-1,1.76651E-1,0E0,2.048099E-2,2.0008087E-3,5.5668354E-3,1.1623904E-2,1.9278005E-2,0E0,0E0,0E0,0E0,0E0,0E0,0E0,3.832236E-3,0E0,3.5572045E-2,3.0402765E-3,1.1223023E-2,2.0186206E-2,1.5858188E-3,2.2239685E-3,0E0,0E0,0E0,0E0,0E0,0E0,0E0,0E0,0E0,0E0,0E0,0E0,0E0,0E0],"parents":[2147483647,0,0,1,1,2,2,3,3,4,4,5,5,6,6,9,9,10,10,11,11,12,12,13,13,15,15,16,16,17,17,18,18,19,19,27,27,29,29,30,30,31,31,32,32,33,33,34,34],"right_children":[2,4,6,8,10,12,14,-1,-1,16,18,20,22,24,-1,26,28,30,32,34,-1,-1,-1,-1,-1,-1,-1,36,-1,38,40,42,44,46,48,-1,-1,-1,-1,-1,-1,-1,-1,-1,-1,-1,-1,-1,-1],"split_conditions":[1.01726815E-1,-6.786929E-1,1.0580786E0,-9.808289E-1,-2.7598593E-1,5.298052E-1,1.587084E0,-4.3934934E-2,-2.9258339E-2,-5.5114657E-1,-9.988215E-2,3.5308775E-1,8.0637914E-1,1.284119E0,7.43457E-2,-6.535727E-1,-5.026335E-1,-1.7176431E-1,-4.939313E-2,2.0236439E-1,1.4999911E-2,2.1347567E-2,3.3277255E-2,4.333469E-2,5.298356E-2,-9.400836E-3,-2.1287596E-2,-5.276474E-1,-1.5909072E-2,-1.7530943E-1,-1.251141E-1,-7.448068E-2,-2.4302853E-2,1.2688448E-1,2.5274053E-1,-1.2734607E-2,-5.72335E-3,-7.500733E-3,2.2454672E-3,-1.1700722E-2,-6.2041082E-3,-1.0154642E-3,-6.850256E-3,6.2327143E-3,-4.8128027E-4,5.359466E-3,3.2355243E-3,8.56115E-3,5.8178985E-3],"split_indices":[0,0,0,0,0,0,0,0,0,0,0,0,0,0,0,0,0,0,0,0,0,0,0,0,0,0,0,0,0,0,0,0,0,0,0,0,0,0,0,0,0,0,0,0,0,0,0,0,0],"split_type":[0,0,0,0,0,0,0,0,0,0,0,0,0,0,0,0,0,0,0,0,0,0,0,0,0,0,0,0,0,0,0,0,0,0,0,0,0,0,0,0,0,0,0,0,0,0,0,0,0],"sum_hessian":[1.099E3,5.64E2,5.35E2,3.67E2,1.97E2,3.06E2,2.29E2,2.84E2,8.3E1,9.7E1,1E2,1.34E2,1.72E2,1.84E2,4.5E1,2.9E1,6.8E1,3.9E1,6.1E1,7.2E1,6.2E1,9.7E1,7.5E1,7.5E1,1.09E2,4E0,2.5E1,1E1,5.8E1,2.6E1,1.3E1,1.5E1,4.6E1,3.4E1,3.8E1,6E0,4E0,2.2E1,4E0,6E0,7E0,1.1E1,4E0,4E0,4.2E1,8E0,2.6E1,1.9E1,1.9E1],"tree_param":{"num_deleted":"0","num_feature":"2","num_nodes":"49","size_leaf_vector":"1"}},{"base_weights":[-1.5622908E-3,-2.4715026E-1,1.5548515E-1,-2.9666007E-1,-1.4100981E-1,1.8845972E-2,2.0561263E-1,-3.3127066E-2,-2.7373124E-2,-1.6210223E-2,-1.0022326E-2,-2.796238E-3,6.394173E-2,1.2921839E-2,2.1691264E-1,3.7282612E-3,9.036991E-3,2.3951802E-1,1.6661641E-1,1.9943735E-2,2.6051778E-2,1.2499746E-1,3.1586573E-1,1.4056715E-2,7.983066E-3,2.5284648E-2,3.7397813E-2],"categories":[],"categories_nodes":[],"categories_segments":[],"categories_sizes":[],"default_left":[0,0,0,0,0,0,0,0,0,0,0,0,0,0,0,0,0,0,0,0,0,0,0,0,0,0,0],"id":12,"left_children":[1,3,5,7,9,11,13,-1,-1,-1,-1,-1,15,-1,17,-1,-1,19,21,-1,-1,23,25,-1,-1,-1,-1],"loss_changes":[4.261856E1,2.2230701E0,4.612606E0,1.4183998E-1,1.0333371E-1,3.8596418E-1,3.975563E-1,0E0,0E0,0E0,0E0,0E0,6.2154114E-2,0E0,4.467125E-1,0E0,0E0,1.9465637E-1,8.052952E-1,0E0,0E0,6.4727545E-2,1.164484E-2,0E0,0E0,0E0,0E0],"parents":[2147483647,0,0,1,1,2,2,3,3,4,4,5,5,6,6,12,12,14,14,17,17,18,18,21,21,22,22],"right_children":[2,4,6,8,10,12,14,-1,-1,-1,-1,-1,16,-1,18,-1,-1,20,22,-1,-1,24,26,-1,-1,-1,-1],"split_conditions":[-3.331449E-1,-6.53266E-1,9.368324E-2,-9.733871E-1,-4.3985194E-1,-1.1973083E-1,2.0039028E-1,-3.3127066E-2,-2.7373124E-2,-1.6210223E-2,-1.0022326E-2,-2.796238E-3,-1.3023795E-2,1.2921839E-2,9.4733953E-1,3.7282612E-3,9.036991E-3,4.1380435E-1,2.334531E0,1.9943735E-2,2.6051778E-2,1.6942887E0,2.9747732E0,1.4056715E-2,7.983066E-3,2.5284648E-2,3.7397813E-2],"split_indices":[1,1,1,1,1,1,1,0,0,0,0,0,1,0,1,0,0,1,1,0,0,1,1,0,0,0,0],"split_type":[0,0,0,0,0,0,0,0,0,0,0,0,0,0,0,0,0,0,0,0,0,0,0,0,0,0,0],"sum_hessian":[1.103E3,4.3E2,6.73E2,2.92E2,1.38E2,1.81E2,4.92E2,1.11E2,1.81E2,8.9E1,4.9E1,8.9E1,9.2E1,6.5E1,4.27E2,4.7E1,4.5E1,2.92E2,1.35E2,1.04E2,1.88E2,1.07E2,2.8E1,7.8E1,2.9E1,1.6E1,1.2E1],"tree_param":{"num_deleted":"0","num_feature":"2","num_nodes":"27","size_leaf_vector":"1"}},{"base_weights":[-3.786649E-3,-2.018319E-1,1.4811827E-1,-2.6789573E-1,-1.0254418E-1,2.7746564E-2,1.7102589E-1,-2.8821006E-2,-2.3896225E-2,-1.6170947E-2,-8.09892E-2,-1.1181012E-3,6.6897757E-3,1.8771043E-1,1.0345339E-1,-1.0849697E-2,-7.0262677E-3,1.4729281E-1,2.1326909E-2,-1.6036174E-1,1.5268265E-1,1.1299828E-2,1.6177088E-2,-6.057933E-3,-3.331996E-2,9.731799E-2,2.8309247E-1,1.4900911E-2,5.0230813E-3,2.154897E-2,3.440049E-2],"categories":[],"categories_nodes":[],"categories_segments":[],"categories_sizes":[],"default_left":[0,0,0,0,0,0,0,0,0,0,0,0,0,0,0,0,0,0,0,0,0,0,0,0,0,0,0,0,0,0,0],"id":13,"left_children":[1,3,5,7,9,11,13,-1,-1,-1,15,-1,-1,17,19,-1,-1,21,-1,23,25,-1,-1,-1,-1,27,29,-1,-1,-1,-1],"loss_changes":[3.2851593E1,3.0816498E0,1.6993465E0,9.8054886E-2,2.3048687E-1,1.5315409E-1,5.65711E-1,0E0,0E0,0E0,3.427559E-2,0E0,0E0,3.9729023E-1,1.3881637E0,0E0,0E0,6.3149214E-2,0E0,2.7299997E-1,6.150384E-1,0E0,0E0,0E0,0E0,1.4829046E-1,3.2934666E-2,0E0,0E0,0E0,0E0],"parents":[2147483647,0,0,1,1,2,2,3,3,4,4,5,5,6,6,10,10,13,13,14,14,17,17,19,19,20,20,25,25,26,26],"right_children":[2,4,6,8,10,12,14,-1,-1,-1,16,-1,-1,18,20,-1,-1,22,-1,24,26,-1,-1,-1,-1,28,30,-1,-1,-1,-1],"split_conditions":[-2.2643787E-1,-6.53266E-1,-1.3023795E-2,-8.666801E-1,-5.46559E-1,-1.1973083E-1,1.1607536E0,-2.8821006E-2,-2.3896225E-2,-1.6170947E-2,-4.3985194E-1,-1.1181012E-3,6.6897757E-3,3.0709732E-1,1.3741677E0,-1.0849697E-2,-7.0262677E-3,9.368324E-2,2.1326909E-2,1.2674606E0,2.441238E0,1.1299828E-2,1.6177088E-2,-6.057933E-3,-3.331996E-2,1.6942887E0,2.9747732E0,1.4900911E-2,5.0230813E-3,2.154897E-2,3.440049E-2],"split_indices":[1,1,1,1,1,1,1,0,0,0,1,0,0,1,1,0,0,1,0,1,1,0,0,0,0,1,1,0,0,0,0],"split_type":[0,0,0,0,0,0,0,0,0,0,0,0,0,0,0,0,0,0,0,0,0,0,0,0,0,0,0,0,0,0,0],"sum_hessian":[1.09E3,4.73E2,6.17E2,2.83E2,1.9E2,9.9E1,5.18E2,1.61E2,1.22E2,4.9E1,1.41E2,5E1,4.9E1,4.14E2,1.04E2,3.7E1,1.04E2,1.63E2,2.51E2,1.6E1,8.8E1,5.1E1,1.12E2,1.1E1,5E0,6.3E1,2.5E1,2.9E1,3.4E1,1.4E1,1.1E1],"tree_param":{"num_deleted":"0","num_feature":"2","num_nodes":"31","size_leaf_vector":"1"}},{"base_weights":[1.3560838E-3,-2.0395505E-1,1.279777E-1,-2.4433309E-1,-1.07800476E-1,4.9634956E-2,1.7475648E-1,-2.7965337E-2,-2.3145905E-2,-1.2735786E-2,-6.9767027E-3,1.3184265E-2,9.713195E-3,1.9260867E-1,1.2107072E-1,-5.6242724E-3,4.533259E-3,1.1716964E-2,2.0366399E-1,6.701821E-2,2.4352443E-1,5.9080595E-4,-1.9768486E-3,1.725696E-2,2.1045014E-2,-2.1748004E-2,1.006939E-1,2.0051937E-1,3.1130552E-2,2.636336E-3,-6.4037754E-3,1.7108094E-2,2.419682E-3,2.2387778E-2,7.1653523E-3],"categories":[],"categories_nodes":[],"categories_segments":[],"categories_sizes":[],"default_left":[0,0,0,0,0,0,0,0,0,0,0,0,0,0,0,0,0,0,0,0,0,0,0,0,0,0,0,0,0,0,0,0,0,0,0],"id":14,"left_children":[1,3,5,7,9,11,13,-1,-1,-1,-1,15,-1,17,19,21,-1,-1,23,25,27,-1,-1,-1,-1,29,31,33,-1,-1,-1,-1,-1,-1,-1],"loss_changes":[2.862261E1,1.6043262E0,2.4870396E0,6.9410324E-2,8.4837794E-2,4.4193172E-1,3.8496208E-1,0E0,0E0,0E0,0E0,8.853576E-2,0E0,2.4134922E-1,7.05143E-1,1.5286561E-2,0E0,0E0,2.1922112E-2,2.3236313E-1,3.3769846E-2,0E0,0E0,0E0,0E0,4.6449836E-2,2.9738694E-1,5.319071E-2,0E0,0E0,0E0,0E0,0E0,0E0,0E0],"parents":[2147483647,0,0,1,1,2,2,3,3,4,4,5,5,6,6,11,11,13,13,14,14,15,15,18,18,19,19,20,20,25,25,26,26,27,27],"right_children":[2,4,6,8,10,12,14,-1,-1,-1,-1,16,-1,18,20,22,-1,-1,24,26,28,-1,-1,-1,-1,30,32,34,-1,-1,-1,-1,-1,-1,-1],"split_conditions":[-3.331449E-1,-6.53266E-1,2.0039028E-1,-1.0800941E0,-4.3985194E-1,-1.3023795E-2,1.1607536E0,-2.7965337E-2,-2.3145905E-2,-1.2735786E-2,-6.9767027E-3,-1.1973083E-1,9.713195E-3,3.0709732E-1,2.227824E0,-2.2643787E-1,4.533259E-3,1.1716964E-2,4.1380435E-1,1.3741677E0,2.9747732E0,5.9080595E-4,-1.9768486E-3,1.725696E-2,2.1045014E-2,1.2674606E0,1.6942887E0,2.7613592E0,3.1130552E-2,2.636336E-3,-6.4037754E-3,1.7108094E-2,2.419682E-3,2.2387778E-2,7.1653523E-3],"split_indices":[1,1,1,1,1,1,1,0,0,0,0,1,0,1,1,1,0,0,1,1,1,0,0,0,0,1,1,1,0,0,0,0,0,0,0],"split_type":[0,0,0,0,0,0,0,0,0,0,0,0,0,0,0,0,0,0,0,0,0,0,0,0,0,0,0,0,0,0,0,0,0,0,0],"sum_hessian":[1.099E3,4.19E2,6.8E2,2.94E2,1.25E2,2.55E2,4.25E2,7.3E1,2.21E2,8.1E1,4.4E1,1.45E2,1.1E2,3.17E2,1.08E2,9.2E1,5.3E1,4.2E1,2.75E2,7.6E1,3.2E1,5.1E1,4.1E1,5.4E1,2.21E2,2.1E1,5.5E1,2.2E1,1E1,1E1,1.1E1,2.8E1,2.7E1,1.8E1,4E0],"tree_param":{"num_deleted":"0","num_feature":"2","num_nodes":"35","size_leaf_vector":"1"}},{"base_weights":[1.9682713E-3,-1.6523561E-1,1.3020884E-1,-2.1805291E-1,-8.7206006E-2,4.460578E-2,1.5612073E-1,-2.4702584E-2,-1.9946994E-2,-1.0583828E-1,-3.728519E-3,2.1510494E-3,5.581262E-3,1.5232609E-1,2.7896687E-2,-1.3391571E-2,-8.973358E-3,1.6355285E-1,1.02753825E-1,1.2344106E-1,1.8038182E-1,-6.049983E-2,1.5165931E-1,1.057887E-2,1.4176192E-2,1.7585477E-2,2.5356496E-2,1.5016493E-3,-1.3051617E-2,1.5911074E-2,2.594921E-3],"categories":[],"categories_nodes":[],"categories_segments":[],"categories_sizes":[],"default_left":[0,0,0,0,0,0,0,0,0,0,0,0,0,0,0,0,0,0,0,0,0,0,0,0,0,0,0,0,0,0,0],"id":15,"left_children":[1,3,5,7,9,11,13,-1,-1,15,-1,-1,-1,17,-1,-1,-1,19,21,23,25,27,29,-1,-1,-1,-1,-1,-1,-1,-1],"loss_changes":[2.3415087E1,1.9344864E0,1.3638439E0,1.02555275E-1,1.7557049E-1,3.632909E-2,1.7846394E-1,0E0,0E0,5.1288247E-2,0E0,0E0,0E0,2.4031448E-1,0E0,0E0,0E0,2.3087406E-1,7.117673E-1,2.1871567E-2,4.221058E-2,1.129948E-1,5.9568167E-2,0E0,0E0,0E0,0E0,0E0,0E0,0E0,0E0],"parents":[2147483647,0,0,1,1,2,2,3,3,4,4,5,5,6,6,9,9,13,13,17,17,18,18,19,19,20,20,21,21,22,22],"right_children":[2,4,6,8,10,12,14,-1,-1,16,-1,-1,-1,18,-1,-1,-1,20,22,24,26,28,30,-1,-1,-1,-1,-1,-1,-1,-1],"split_conditions":[-2.2643787E-1,-6.53266E-1,9.368324E-2,-9.733871E-1,-3.331449E-1,-1.1973083E-1,2.9747732E0,-2.4702584E-2,-1.9946994E-2,-5.46559E-1,-3.728519E-3,2.1510494E-3,5.581262E-3,1.1607536E0,2.7896687E-2,-1.3391571E-2,-8.973358E-3,3.0709732E-1,1.3741677E0,2.0039028E-1,1.0540465E0,1.2674606E0,2.7613592E0,1.057887E-2,1.4176192E-2,1.7585477E-2,2.5356496E-2,1.5016493E-3,-1.3051617E-2,1.5911074E-2,2.594921E-3],"split_indices":[1,1,1,1,1,1,1,0,0,1,0,0,0,1,0,0,0,1,1,1,1,1,1,0,0,0,0,0,0,0,0],"split_type":[0,0,0,0,0,0,0,0,0,0,0,0,0,0,0,0,0,0,0,0,0,0,0,0,0,0,0,0,0,0,0],"sum_hessian":[1.09E3,4.73E2,6.17E2,2.81E2,1.92E2,1.44E2,4.73E2,1.05E2,1.76E2,1.39E2,5.3E1,4.8E1,9.6E1,4.61E2,1.2E1,4.8E1,9.1E1,3.74E2,8.7E1,1.13E2,2.61E2,2E1,6.7E1,6.1E1,5.2E1,2.49E2,1.2E1,1E1,1E1,6.3E1,4E0],"tree_param":{"num_deleted":"0","num_feature":"2","num_nodes":"31","size_leaf_vector":"1"}},{"base_weights":[-2.1740368E-3,-1.644648E-1,9.926089E-2,-2.0358372E-1,-8.7520815E-2,3.4725145E-2,1.2569939E-1,-2.2622332E-2,-1.9470202E-2,-1.2454439E-2,-6.6723735E-3,2.2791775E-3,6.2042773E-2,1.4474504E-1,5.4213487E-2,-1.1373588E-3,1.953929E-3,6.827085E-3,5.402272E-3,8.36915E-3,1.561575E-1,-1.2512541E-2,1.899961E-1,1.5141343E-2,2.4869515E-2,2.9840142E-2,-1.0627476E-1,1.5151368E-1,2.4792103E-2,-3.93454E-3,9.783207E-3,-1.6009992E-2,-2.5674603E-3,1.6975064E-2,2.2450506E-3],"categories":[],"categories_nodes":[],"categories_segments":[],"categories_sizes":[],"default_left":[0,0,0,0,0,0,0,0,0,0,0,0,0,0,0,0,0,0,0,0,0,0,0,0,0,0,0,0,0,0,0,0,0,0,0],"id":16,"left_children":[1,3,5,7,9,11,13,-1,-1,-1,-1,15,17,19,21,-1,-1,-1,-1,-1,23,25,27,-1,-1,29,31,33,-1,-1,-1,-1,-1,-1,-1],"loss_changes":[1.819032E1,1.2614174E0,1.1558695E0,1.2456894E-2,1.0333741E-1,1.7624162E-1,6.4839315E-1,0E0,0E0,0E0,0E0,2.190187E-2,1.7063916E-3,2.5170374E-1,9.355814E-1,0E0,0E0,0E0,0E0,0E0,1.0238743E-1,2.8114697E-1,3.822577E-2,0E0,0E0,2.3434813E-1,9.1332406E-2,5.032456E-2,0E0,0E0,0E0,0E0,0E0,0E0,0E0],"parents":[2147483647,0,0,1,1,2,2,3,3,4,4,5,5,6,6,11,11,12,12,13,13,14,14,20,20,21,21,22,22,25,25,26,26,27,27],"right_children":[2,4,6,8,10,12,14,-1,-1,-1,-1,16,18,20,22,-1,-1,-1,-1,-1,24,26,28,-1,-1,30,32,34,-1,-1,-1,-1,-1,-1,-1],"split_conditions":[-3.331449E-1,-6.53266E-1,9.368324E-2,-1.0800941E0,-5.46559E-1,-1.1973083E-1,1.1607536E0,-2.2622332E-2,-1.9470202E-2,-1.2454439E-2,-6.6723735E-3,-2.2643787E-1,-1.3023795E-2,2.0039028E-1,2.227824E0,-1.1373588E-3,1.953929E-3,6.827085E-3,5.402272E-3,8.36915E-3,1.0540465E0,1.6942887E0,2.9747732E0,1.5141343E-2,2.4869515E-2,1.3741677E0,2.0144098E0,2.7613592E0,2.4792103E-2,-3.93454E-3,9.783207E-3,-1.6009992E-2,-2.5674603E-3,1.6975064E-2,2.2450506E-3],"split_indices":[1,1,1,1,1,1,1,0,0,0,0,1,1,1,1,0,0,0,0,0,1,1,1,0,0,1,1,1,0,0,0,0,0,0,0],"split_type":[0,0,0,0,0,0,0,0,0,0,0,0,0,0,0,0,0,0,0,0,0,0,0,0,0,0,0,0,0,0,0,0,0,0,0],"sum_hessian":[1.103E3,4.24E2,6.79E2,2.8E2,1.44E2,1.98E2,4.81E2,7.2E1,2.08E2,5E1,9.4E1,9.1E1,1.07E2,3.79E2,1.02E2,5.1E1,4E1,5.6E1,5.1E1,6.1E1,3.18E2,6.9E1,3.3E1,3.05E2,1.3E1,4.8E1,2.1E1,2.2E1,1.1E1,2.4E1,2.4E1,1.2E1,9E0,1.9E1,3E0],"tree_param":{"num_deleted":"0","num_feature":"2","num_nodes":"35","size_leaf_vector":"1"}},{"base_weights":[-1.7310403E-3,-1.982184E-1,2.5066766E-1,-2.7695805E-1,-6.968178E-2,1.3078056E-1,4.0969622E-1,-2.978546E-1,-1.8482862E-1,-1.126364E-1,-2.9034854E-4,9.5660746E-2,2.3377E-2,3.583497E-1,5.929343E-2,-3.078965E-1,-2.5223497E-1,-1.7156236E-1,-2.7283007E-2,-1.4757374E-1,-9.2538714E-2,7.194757E-3,-1.2685942E-2,4.210418E-2,1.1900913E-1,3.1449124E-2,3.897321E-2,-3.0200606E-2,-5.9760172E-2,-2.201828E-2,-2.9380998E-2,-1.7809932E-1,-1.0108983E-2,-1.4639661E-3,-1.5541379E-1,-4.740648E-2,-1.0531578E-1,-8.292857E-3,5.646246E-2,-7.2396905E-3,-2.6459175E-3,4.552792E-2,-8.086294E-4,9.790352E-2,1.3740231E-2,-7.9233E-3,-1.8191276E-2,-1.4319343E-2,-2.0827977E-2,-2.9615392E-3,-5.3339116E-3,-1.4234902E-2,-7.203662E-3,-3.3545558E-4,-7.631088E-3,8.937593E-3,3.4359486E-3,-1.3827392E-3,1.6210364E-3,2.9726087E-3,4.8791105E-3,1.0217949E-2,2.1024835E-3],"categories":[],"categories_nodes":[],"categories_segments":[],"categories_sizes":[],"default_left":[0,0,0,0,0,0,0,0,0,0,0,0,0,0,0,0,0,0,0,0,0,0,0,0,0,0,0,0,0,0,0,0,0,0,0,0,0,0,0,0,0,0,0,0,0,0,0,0,0,0,0,0,0,0,0,0,0,0,0,0,0,0,0],"id":17,"left_children":[1,3,5,7,9,11,13,15,17,19,21,23,-1,25,-1,27,29,31,-1,33,35,37,39,41,43,-1,-1,-1,-1,-1,-1,45,-1,-1,47,49,51,53,55,-1,57,59,-1,61,-1,-1,-1,-1,-1,-1,-1,-1,-1,-1,-1,-1,-1,-1,-1,-1,-1,-1,-1],"loss_changes":[5.494931E1,6.2860374E0,9.193172E0,6.880703E-1,7.093698E-1,9.831548E-1,1.7445183E0,6.572533E-2,3.958392E-2,8.9561224E-2,8.627246E-3,2.5633514E-1,0E0,1.0453606E-1,0E0,2.4955559E-1,1.7927647E-2,1.2861252E-2,0E0,5.19197E-2,5.036646E-2,4.472451E-2,2.0790927E-2,1.1537701E-2,4.2837143E-2,0E0,0E0,0E0,0E0,0E0,0E0,8.207798E-3,0E0,0E0,1.8316507E-3,8.479431E-4,8.094585E-2,1.4859218E-2,7.113885E-3,0E0,6.760219E-3,1.6950518E-3,0E0,2.1191537E-2,0E0,0E0,0E0,0E0,0E0,0E0,0E0,0E0,0E0,0E0,0E0,0E0,0E0,0E0,0E0,0E0,0E0,0E0,0E0],"parents":[2147483647,0,0,1,1,2,2,3,3,4,4,5,5,6,6,7,7,8,8,9,9,10,10,11,11,13,13,15,15,16,16,17,17,19,19,20,20,21,21,22,22,23,23,24,24,31,31,34,34,35,35,36,36,37,37,38,38,40,40,41,41,43,43],"right_children":[2,4,6,8,10,12,14,16,18,20,22,24,-1,26,-1,28,30,32,-1,34,36,38,40,42,44,-1,-1,-1,-1,-1,-1,46,-1,-1,48,50,52,54,56,-1,58,60,-1,62,-1,-1,-1,-1,-1,-1,-1,-1,-1,-1,-1,-1,-1,-1,-1,-1,-1,-1,-1],"split_conditions":[2.0236439E-1,-6.786929E-1,1.083325E0,-9.556289E-1,-9.965701E-2,8.31586E-1,1.5869154E0,-1.232549E0,-7.03861E-1,-4.5233804E-1,1.0158946E-1,4.0372965E-1,2.3377E-2,1.2854575E0,5.929343E-2,-1.2334164E0,-1.0311272E0,-7.2909856E-1,-2.7283007E-2,-6.535727E-1,-4.0169924E-1,5.0958097E-2,1.01726815E-1,3.787355E-1,6.439697E-1,3.1449124E-2,3.897321E-2,-3.0200606E-2,-5.9760172E-2,-2.201828E-2,-2.9380998E-2,-9.305365E-1,-1.0108983E-2,-1.4639661E-3,-5.024524E-1,-4.269769E-1,-2.7591965E-1,2.6322711E-2,5.1353097E-2,-7.2396905E-3,1.524811E-1,2.2759944E-1,-8.086294E-4,6.304782E-1,1.3740231E-2,-7.9233E-3,-1.8191276E-2,-1.4319343E-2,-2.0827977E-2,-2.9615392E-3,-5.3339116E-3,-1.4234902E-2,-7.203662E-3,-3.3545558E-4,-7.631088E-3,8.937593E-3,3.4359486E-3,-1.3827392E-3,1.6210364E-3,2.9726087E-3,4.8791105E-3,1.0217949E-2,2.1024835E-3],"split_indices":[0,0,0,0,0,0,0,0,0,0,0,0,0,0,0,0,0,0,0,0,0,0,0,0,0,0,0,0,0,0,0,0,0,0,0,0,0,0,0,0,0,0,0,0,0,0,0,0,0,0,0,0,0,0,0,0,0,0,0,0,0,0,0],"split_type":[0,0,0,0,0,0,0,0,0,0,0,0,0,0,0,0,0,0,0,0,0,0,0,0,0,0,0,0,0,0,0,0,0,0,0,0,0,0,0,0,0,0,0,0,0,0,0,0,0,0,0,0,0,0,0,0,0,0,0,0,0,0,0],"sum_hessian":[1.106E3,6.22E2,4.84E2,3.85E2,2.37E2,2.77E2,2.07E2,3.12E2,7.3E1,1.46E2,9.1E1,2.08E2,6.9E1,1.64E2,4.3E1,2.51E2,6.1E1,6.6E1,7E0,5.1E1,9.5E1,5.7E1,3.4E1,6.4E1,1.44E2,7.3E1,9.1E1,2.48E2,3E0,3.8E1,2.3E1,5.9E1,7E0,3E0,4.8E1,2.2E1,7.3E1,4.4E1,1.3E1,4E0,3E1,6E1,4E0,7E1,7.4E1,3E0,5.6E1,4.2E1,6E0,7E0,1.5E1,3.3E1,4E1,4.2E1,2E0,4E0,9E0,1.9E1,1.1E1,1.2E1,4.8E1,6.6E1,4E0],"tree_param":{"num_deleted":"0","num_feature":"2","num_nodes":"63","size_leaf_vector":"1"}},{"base_weights":[-2.925546E-3,-1.8433692E-1,2.1484748E-1,-2.5963858E-1,-6.85172E-2,1.1867695E-1,3.819523E-1,-2.7888447E-1,-1.9014175E-1,-1.1822557E-1,-3.2096438E-2,6.764116E-2,1.8364576E-1,3.331915E-1,5.391366E-2,-2.8584206E-1,-2.4039286E-1,-1.6498409E-1,-2.0754742E-2,-1.8394947E-4,-1.23106666E-1,-6.2888816E-2,-1.6351374E-2,3.5172883E-2,9.040539E-2,1.4383233E-1,2.098869E-2,3.098687E-2,3.8764037E-2,-2.7990524E-2,-5.527816E-2,-1.6094023E-2,-2.6757563E-2,-2.006288E-1,-7.103483E-2,-1.6430048E-2,-9.853093E-2,-4.1795578E-2,-9.3378544E-2,-1.2039345E-2,-6.6991816E-3,2.7626086E-2,5.209808E-2,9.2693515E-2,1.0028869E-3,1.4664918E-2,6.9142445E-3,-1.7654411E-2,-2.9497972E-2,-3.0851865E-3,-1.21120615E-2,-8.582362E-3,-2.0282855E-2,-6.0481587E-3,5.999357E-3,-1.3769773E-2,-4.415343E-3,-2.3570163E-3,1.1437442E-3,3.774505E-3,-3.9813246E-4,5.7448987E-3,1.365675E-3,8.513955E-3,1.30326925E-2],"categories":[],"categories_nodes":[],"categories_segments":[],"categories_sizes":[],"default_left":[0,0,0,0,0,0,0,0,0,0,0,0,0,0,0,0,0,0,0,0,0,0,0,0,0,0,0,0,0,0,0,0,0,0,0,0,0,0,0,0,0,0,0,0,0,0,0,0,0,0,0,0,0,0,0,0,0,0,0,0,0,0,0,0,0],"id":18,"left_children":[1,3,5,7,9,11,13,15,17,19,21,23,25,27,-1,29,31,33,-1,-1,35,37,39,41,43,45,-1,-1,-1,-1,-1,-1,-1,47,49,-1,51,53,55,57,-1,59,61,63,-1,-1,-1,-1,-1,-1,-1,-1,-1,-1,-1,-1,-1,-1,-1,-1,-1,-1,-1,-1,-1],"loss_changes":[4.294367E1,5.1540127E0,7.893524E0,4.271431E-1,4.216534E-1,1.0320344E0,1.1999626E0,6.006241E-3,1.2266636E-3,5.6014776E-2,6.539312E-2,1.2838268E-1,1.1398697E-1,5.7668686E-2,0E0,2.1135521E-1,6.276369E-2,1.1300266E-1,0E0,0E0,7.9986095E-2,2.5681049E-2,1.928286E-2,8.1405565E-3,1.8197238E-2,2.063036E-3,0E0,0E0,0E0,0E0,0E0,0E0,0E0,9.278178E-3,2.0414349E-2,0E0,6.4763725E-2,5.878745E-2,3.3189267E-2,2.3550348E-2,0E0,1.7421331E-2,3.7407465E-3,1.761645E-2,0E0,0E0,0E0,0E0,0E0,0E0,0E0,0E0,0E0,0E0,0E0,0E0,0E0,0E0,0E0,0E0,0E0,0E0,0E0,0E0,0E0],"parents":[2147483647,0,0,1,1,2,2,3,3,4,4,5,5,6,6,7,7,8,8,9,9,10,10,11,11,12,12,13,13,15,15,16,16,17,17,20,20,21,21,22,22,23,23,24,24,25,25,33,33,34,34,36,36,37,37,38,38,39,39,41,41,42,42,43,43],"right_children":[2,4,6,8,10,12,14,16,18,20,22,24,26,28,-1,30,32,34,-1,-1,36,38,40,42,44,46,-1,-1,-1,-1,-1,-1,-1,48,50,-1,52,54,56,58,-1,60,62,64,-1,-1,-1,-1,-1,-1,-1,-1,-1,-1,-1,-1,-1,-1,-1,-1,-1,-1,-1,-1,-1],"split_conditions":[1.5210122E-1,-6.786929E-1,1.1842523E0,-9.808289E-1,-2.7598593E-1,7.059053E-1,1.587084E0,-1.232549E0,-8.637505E-1,-6.535727E-1,-9.988215E-2,4.0372965E-1,8.8193166E-1,1.4107304E0,5.391366E-2,-1.2334164E0,-1.1570288E0,-9.05273E-1,-2.0754742E-2,-1.8394947E-4,-5.276474E-1,-1.7176431E-1,1.2691996E-1,3.2884723E-1,7.058822E-1,8.570386E-1,2.098869E-2,3.098687E-2,3.8764037E-2,-2.7990524E-2,-5.527816E-2,-1.6094023E-2,-2.6757563E-2,-9.0531707E-1,-8.801711E-1,-1.6430048E-2,-3.0110827E-1,-1.7530943E-1,-1.251141E-1,5.0958097E-2,-6.6991816E-3,2.779908E-1,3.787355E-1,6.805754E-1,1.0028869E-3,1.4664918E-2,6.9142445E-3,-1.7654411E-2,-2.9497972E-2,-3.0851865E-3,-1.21120615E-2,-8.582362E-3,-2.0282855E-2,-6.0481587E-3,5.999357E-3,-1.3769773E-2,-4.415343E-3,-2.3570163E-3,1.1437442E-3,3.774505E-3,-3.9813246E-4,5.7448987E-3,1.365675E-3,8.513955E-3,1.30326925E-2],"split_indices":[0,0,0,0,0,0,0,0,0,0,0,0,0,0,0,0,0,0,0,0,0,0,0,0,0,0,0,0,0,0,0,0,0,0,0,0,0,0,0,0,0,0,0,0,0,0,0,0,0,0,0,0,0,0,0,0,0,0,0,0,0,0,0,0,0],"split_type":[0,0,0,0,0,0,0,0,0,0,0,0,0,0,0,0,0,0,0,0,0,0,0,0,0,0,0,0,0,0,0,0,0,0,0,0,0,0,0,0,0,0,0,0,0,0,0,0,0,0,0,0,0,0,0,0,0,0,0,0,0,0,0,0,0],"sum_hessian":[1.085E3,5.92E2,4.93E2,3.58E2,2.34E2,3.14E2,1.79E2,2.78E2,8E1,9.8E1,1.36E2,1.77E2,1.37E2,1.39E2,4E1,2.3E2,4.8E1,3.7E1,4.3E1,4E0,9.4E1,4.5E1,9.1E1,7.4E1,1.03E2,5.7E1,8E1,1.02E2,3.7E1,2.27E2,3E0,1.4E1,3.4E1,2.6E1,1.1E1,3.3E1,6.1E1,2.8E1,1.7E1,8.5E1,6E0,5.3E1,2.1E1,1E2,3E0,5.4E1,3E0,2.3E1,3E0,7E0,4E0,5.6E1,5E0,2.4E1,4E0,8E0,9E0,5.7E1,2.8E1,4E1,1.3E1,1.8E1,3E0,8.6E1,1.4E1],"tree_param":{"num_deleted":"0","num_feature":"2","num_nodes":"65","size_leaf_vector":"1"}},{"base_weights":[4.1182954E-3,-1.022117E-1,7.126789E-2,-1.23508945E-1,-5.826901E-2,1.5722243E-2,8.7276764E-2,-1.3614322E-1,-1.0505911E-2,-7.1107605E-3,-5.07156E-3,1.1715878E-2,2.2627711E-3,8.4552795E-2,1.3536108E-1,-1.48042245E-2,-1.2617263E-2,9.6497935E-4,1.3888914E-3,9.083176E-2,4.9071196E-2,1.6823547E-1,1.0429987E-1,7.396215E-3,1.0087608E-1,-2.1078654E-2,7.1205266E-2,1.10780215E-2,2.4108713E-2,-1.4975928E-2,1.3122111E-2,9.752593E-3,1.5651163E-2,-5.8101183E-3,1.1128745E-3,1.1586609E-2,3.1297535E-3],"categories":[],"categories_nodes":[],"categories_segments":[],"categories_sizes":[],"default_left":[0,0,0,0,0,0,0,0,0,0,0,0,0,0,0,0,0,0,0,0,0,0,0,0,0,0,0,0,0,0,0,0,0,0,0,0,0],"id":19,"left_children":[1,3,5,7,9,11,13,15,-1,-1,-1,17,-1,19,21,-1,-1,-1,-1,23,25,27,29,-1,31,33,35,-1,-1,-1,-1,-1,-1,-1,-1,-1,-1],"loss_changes":[7.7470617E0,3.8586378E-1,5.899613E-1,5.143118E-2,9.873301E-3,3.88477E-3,5.614066E-2,7.7819824E-4,0E0,0E0,0E0,3.0147377E-4,0E0,1.04931355E-1,9.002119E-3,0E0,0E0,0E0,0E0,6.302786E-2,1.1950624E-1,1.933515E-2,1.2908493E-1,0E0,3.282404E-2,2.3302179E-2,9.974778E-2,0E0,0E0,0E0,0E0,0E0,0E0,0E0,0E0,0E0,0E0],"parents":[2147483647,0,0,1,1,2,2,3,3,4,4,5,5,6,6,7,7,11,11,13,13,14,14,19,19,20,20,21,21,22,22,24,24,25,25,26,26],"right_children":[2,4,6,8,10,12,14,16,-1,-1,-1,18,-1,20,22,-1,-1,-1,-1,24,26,28,30,-1,32,34,36,-1,-1,-1,-1,-1,-1,-1,-1,-1,-1],"split_conditions":[-3.331449E-1,-6.53266E-1,-1.3023795E-2,-8.666801E-1,-5.46559E-1,-1.1973083E-1,2.334531E0,-1.0800941E0,-1.0505911E-2,-7.1107605E-3,-5.07156E-3,-2.2643787E-1,2.2627711E-3,1.1607536E0,2.7613592E0,-1.48042245E-2,-1.2617263E-2,9.6497935E-4,1.3888914E-3,3.0709732E-1,1.3741677E0,2.547945E0,2.868066E0,7.396215E-3,1.0540465E0,1.2674606E0,1.6942887E0,1.10780215E-2,2.4108713E-2,-1.4975928E-2,1.3122111E-2,9.752593E-3,1.5651163E-2,-5.8101183E-3,1.1128745E-3,1.1586609E-2,3.1297535E-3],"split_indices":[1,1,1,1,1,1,1,1,0,0,0,1,0,1,1,0,0,0,0,1,1,1,1,0,1,1,1,0,0,0,0,0,0,0,0,0,0],"split_type":[0,0,0,0,0,0,0,0,0,0,0,0,0,0,0,0,0,0,0,0,0,0,0,0,0,0,0,0,0,0,0,0,0,0,0,0,0],"sum_hessian":[1.083E3,4.19E2,6.64E2,2.81E2,1.38E2,1.49E2,5.15E2,1.63E2,1.18E2,4.8E1,9E1,9.6E1,5.3E1,4.9E2,2.5E1,6.8E1,9.5E1,5.2E1,4.4E1,4.15E2,7.5E1,1E1,1.5E1,1.58E2,2.57E2,1.8E1,5.7E1,7E0,3E0,1E0,1.4E1,2.45E2,1.2E1,8E0,1E1,2.6E1,3.1E1],"tree_param":{"num_deleted":"0","num_feature":"2","num_nodes":"37","size_leaf_vector":"1"}},{"base_weights":[-1.6652416E-3,-8.377857E-2,6.2396564E-2,-1.1765287E-1,-5.0117977E-2,1.7106976E-2,7.055063E-2,-1.3130041E-2,-1.0447967E-2,-7.4855178E-3,-3.2468762E-2,1.4702533E-3,1.8976923E-3,7.915035E-2,4.978904E-2,-3.623077E-3,-2.474682E-3,5.7697925E-3,9.446154E-3,9.997185E-3,8.418683E-2,3.2174982E-2,-1.5128659E-2,6.917019E-2,1.1444752E-1,1.4349583E-3,1.1837698E-2,1.1356463E-2,4.281616E-3,1.7895337E-2,1.0161564E-2],"categories":[],"categories_nodes":[],"categories_segments":[],"categories_sizes":[],"default_left":[0,0,0,0,0,0,0,0,0,0,0,0,0,0,0,0,0,0,0,0,0,0,0,0,0,0,0,0,0,0,0],"id":20,"left_children":[1,3,5,7,9,11,13,-1,-1,-1,15,-1,-1,17,19,-1,-1,-1,-1,21,23,25,-1,27,29,-1,-1,-1,-1,-1,-1],"loss_changes":[5.749506E0,5.402734E-1,2.2553992E-1,2.9069662E-2,1.03224814E-1,1.4812686E-4,8.890176E-2,0E0,0E0,0E0,3.2575577E-3,0E0,0E0,1.14766836E-1,2.1131489E-1,0E0,0E0,0E0,0E0,2.659827E-1,2.9799938E-2,9.817935E-2,0E0,6.299603E-2,3.3365488E-3,0E0,0E0,0E0,0E0,0E0,0E0],"parents":[2147483647,0,0,1,1,2,2,3,3,4,4,5,5,6,6,10,10,13,13,14,14,19,19,20,20,21,21,23,23,24,24],"right_children":[2,4,6,8,10,12,14,-1,-1,-1,16,-1,-1,18,20,-1,-1,-1,-1,22,24,26,-1,28,30,-1,-1,-1,-1,-1,-1],"split_conditions":[-2.2643787E-1,-7.5997305E-1,-1.3023795E-2,-9.733871E-1,-5.46559E-1,-1.1973083E-1,8.406325E-1,-1.3130041E-2,-1.0447967E-2,-7.4855178E-3,-3.331449E-1,1.4702533E-3,1.8976923E-3,3.0709732E-1,1.3741677E0,-3.623077E-3,-2.474682E-3,5.7697925E-3,9.446154E-3,1.2674606E0,2.334531E0,1.1607536E0,-1.5128659E-2,1.5875818E0,2.441238E0,1.4349583E-3,1.1837698E-2,1.1356463E-2,4.281616E-3,1.7895337E-2,1.0161564E-2],"split_indices":[1,1,1,1,1,1,1,0,0,0,1,0,0,1,1,0,0,0,0,1,1,1,0,1,1,0,0,0,0,0,0],"split_type":[0,0,0,0,0,0,0,0,0,0,0,0,0,0,0,0,0,0,0,0,0,0,0,0,0,0,0,0,0,0,0],"sum_hessian":[1.091E3,4.78E2,6.13E2,2.37E2,2.41E2,9.4E1,5.19E2,1.12E2,1.25E2,9.9E1,1.42E2,4.5E1,4.9E1,3.65E2,1.54E2,9.3E1,4.9E1,1.54E2,2.11E2,7.2E1,8.2E1,6.4E1,8E0,5.7E1,2.5E1,5.4E1,1E1,2E1,3.7E1,2E0,2.3E1],"tree_param":{"num_deleted":"0","num_feature":"2","num_nodes":"31","size_leaf_vector":"1"}},{"base_weights":[-2.2821731E-3,-1.3564064E-1,2.098845E-1,-2.0485902E-1,-2.8389256E-2,1.250138E-1,3.3669606E-1,-2.2438731E-2,-1.4484009E-1,-7.433511E-2,2.8123378E-3,8.487818E-2,1.861842E-2,2.7913958E-2,4.3468612E-1,-1.3824701E-1,-2.7180875E-2,-8.5733026E-2,-5.076245E-2,-2.1798378E-2,1.1412568E-2,6.965611E-2,1.0756515E-1,3.6474016E-2,4.7744658E-2,-1.426274E-1,-4.6579774E-2,-5.829481E-2,-1.1837159E-1,-2.3132151E-2,-9.4502784E-2,6.571013E-2,-3.8677268E-2,7.3552313E-3,6.7895646E-3,9.844113E-2,5.9632663E-2,1.8676566E-2,9.857287E-2,-1.3625175E-2,-2.9060537E-2,-6.284021E-3,1.7361194E-3,-7.163751E-4,-6.3777044E-3,-9.586852E-3,-1.5057094E-2,-4.3013426E-3,6.1019366E-3,-1.3303201E-2,-4.897686E-3,2.0187274E-3,9.480545E-3,-2.4632644E-3,-8.29988E-3,-7.7726888E-3,1.0712136E-3,1.3576701E-2,8.343742E-3,-4.3223966E-3,6.6221803E-3,5.993071E-3,1.1002667E-2],"categories":[],"categories_nodes":[],"categories_segments":[],"categories_sizes":[],"default_left":[0,0,0,0,0,0,0,0,0,0,0,0,0,0,0,0,0,0,0,0,0,0,0,0,0,0,0,0,0,0,0,0,0,0,0,0,0,0,0,0,0,0,0,0,0,0,0,0,0,0,0,0,0,0,0,0,0,0,0,0,0,0,0],"id":21,"left_children":[1,3,5,7,9,11,13,-1,15,17,19,21,-1,-1,23,25,-1,27,29,31,33,35,37,-1,-1,39,41,43,45,47,49,51,53,-1,55,57,59,-1,61,-1,-1,-1,-1,-1,-1,-1,-1,-1,-1,-1,-1,-1,-1,-1,-1,-1,-1,-1,-1,-1,-1,-1,-1],"loss_changes":[3.0642817E1,4.9309893E0,4.456669E0,4.4101334E-1,3.7580806E-1,6.02885E-1,8.2053566E-1,0E0,4.7808886E-2,2.412802E-2,3.3479057E-2,4.5690298E-2,0E0,0E0,5.3110123E-3,3.310871E-2,0E0,5.5787623E-2,4.2530604E-2,6.310039E-2,3.3111468E-2,2.1539569E-2,2.4321556E-2,0E0,0E0,4.908967E-2,7.3292283E-3,1.0755628E-2,8.027047E-3,4.2777594E-2,1.804161E-2,7.3576514E-3,1.9742291E-2,0E0,3.7300035E-2,1.5525669E-3,5.233717E-2,0E0,1.8191576E-2,0E0,0E0,0E0,0E0,0E0,0E0,0E0,0E0,0E0,0E0,0E0,0E0,0E0,0E0,0E0,0E0,0E0,0E0,0E0,0E0,0E0,0E0,0E0,0E0],"parents":[2147483647,0,0,1,1,2,2,3,3,4,4,5,5,6,6,8,8,9,9,10,10,11,11,14,14,15,15,17,17,18,18,19,19,20,20,21,21,22,22,25,25,26,26,27,27,28,28,29,29,30,30,31,31,32,32,34,34,35,35,36,36,38,38],"right_children":[2,4,6,8,10,12,14,-1,16,18,20,22,-1,-1,24,26,-1,28,30,32,34,36,38,-1,-1,40,42,44,46,48,50,52,54,-1,56,58,60,-1,62,-1,-1,-1,-1,-1,-1,-1,-1,-1,-1,-1,-1,-1,-1,-1,-1,-1,-1,-1,-1,-1,-1,-1,-1],"split_conditions":[4.0372965E-1,-5.5114657E-1,1.2054352E0,-9.556289E-1,-9.988215E-2,8.31586E-1,1.5110615E0,-2.2438731E-2,-5.5285287E-1,-2.507651E-1,2.3321683E-2,6.805754E-1,1.861842E-2,2.7913958E-2,1.6373839E0,-5.779636E-1,-2.7180875E-2,-4.0169924E-1,-1.7176431E-1,-7.458559E-2,2.6322711E-2,4.5464152E-1,6.8071634E-1,3.6474016E-2,4.7744658E-2,-5.7800806E-1,-5.529388E-1,-5.2772206E-1,-3.0110827E-1,-1.7530943E-1,-1.251141E-1,-9.965701E-2,9.7671E-4,7.3552313E-3,5.0958097E-2,4.2078716E-1,4.7910044E-1,1.8676566E-2,7.059053E-1,-1.3625175E-2,-2.9060537E-2,-6.284021E-3,1.7361194E-3,-7.163751E-4,-6.3777044E-3,-9.586852E-3,-1.5057094E-2,-4.3013426E-3,6.1019366E-3,-1.3303201E-2,-4.897686E-3,2.0187274E-3,9.480545E-3,-2.4632644E-3,-8.29988E-3,-7.7726888E-3,1.0712136E-3,1.3576701E-2,8.343742E-3,-4.3223966E-3,6.6221803E-3,5.993071E-3,1.1002667E-2],"split_indices":[0,0,0,0,0,0,0,0,0,0,0,0,0,0,0,0,0,0,0,0,0,0,0,0,0,0,0,0,0,0,0,0,0,0,0,0,0,0,0,0,0,0,0,0,0,0,0,0,0,0,0,0,0,0,0,0,0,0,0,0,0,0,0],"split_type":[0,0,0,0,0,0,0,0,0,0,0,0,0,0,0,0,0,0,0,0,0,0,0,0,0,0,0,0,0,0,0,0,0,0,0,0,0,0,0,0,0,0,0,0,0,0,0,0,0,0,0,0,0,0,0,0,0,0,0,0,0,0,0],"sum_hessian":[1.081E3,6.64E2,4.17E2,4.03E2,2.61E2,2.51E2,1.66E2,3.02E2,1.01E2,1.05E2,1.56E2,1.53E2,9.8E1,1.07E2,5.9E1,9.8E1,3E0,6.9E1,3.6E1,4E1,1.16E2,9.4E1,5.9E1,2.6E1,3.3E1,9.3E1,5E0,3.9E1,3E1,2.3E1,1.3E1,6E0,3.4E1,7E0,1.09E2,2.2E1,7.2E1,4E0,5.5E1,9.1E1,2E0,4E0,1E0,4E0,3.5E1,2E1,1E1,1.9E1,4E0,6E0,7E0,3E0,3E0,2.7E1,7E0,4E0,1.05E2,4E0,1.8E1,4E0,6.8E1,1.4E1,4.1E1],"tree_param":{"num_deleted":"0","num_feature":"2","num_nodes":"63","size_leaf_vector":"1"}},{"base_weights":[3.698533E-4,-1.23878874E-1,1.7876282E-1,-1.8163821E-1,-1.9410618E-2,1.0707241E-1,3.0175957E-1,-1.997469E-2,-1.1735628E-1,-5.0993405E-2,1.0967795E-2,7.424942E-2,1.6917279E-2,2.623046E-1,4.5138236E-2,-5.6234937E-2,-1.3165696E-1,6.328275E-3,-5.590272E-2,4.4965994E-2,-2.681704E-3,5.4438256E-2,9.01483E-2,2.4263522E-2,3.0819861E-2,-3.354909E-2,-6.412463E-3,-1.1840103E-1,-1.79064E-1,-2.8376805E-2,-6.318849E-2,1.0419922E-2,3.320282E-2,1.3171242E-3,-4.6285717E-3,5.707681E-2,2.2237375E-3,8.350046E-2,1.0502949E-2,-7.426931E-3,1.5558407E-3,-1.373887E-2,-8.419501E-3,-2.5348185E-2,-9.15654E-3,-1.12408465E-2,-3.469759E-5,-9.653752E-3,-4.249023E-3,-8.454634E-4,5.912985E-3,-1.2590076E-3,1.0461935E-3,3.6725686E-3,6.357325E-3,8.527392E-3,3.1146498E-3],"categories":[],"categories_nodes":[],"categories_segments":[],"categories_sizes":[],"default_left":[0,0,0,0,0,0,0,0,0,0,0,0,0,0,0,0,0,0,0,0,0,0,0,0,0,0,0,0,0,0,0,0,0,0,0,0,0,0,0,0,0,0,0,0,0,0,0,0,0,0,0,0,0,0,0,0,0],"id":22,"left_children":[1,3,5,7,9,11,13,-1,15,17,19,21,-1,23,-1,25,27,-1,29,31,33,35,37,-1,-1,39,-1,41,43,45,47,-1,49,51,-1,53,-1,55,-1,-1,-1,-1,-1,-1,-1,-1,-1,-1,-1,-1,-1,-1,-1,-1,-1,-1,-1],"loss_changes":[2.3539314E1,3.7737694E0,3.8122015E0,4.4567585E-1,2.1547271E-1,5.520539E-1,8.2613754E-1,0E0,7.213712E-2,6.524959E-2,5.3487293E-2,5.2732944E-2,0E0,4.1669846E-2,0E0,1.2493804E-3,2.4673581E-2,0E0,1.946497E-2,1.9533731E-2,1.4533254E-2,5.8677197E-3,1.1227727E-3,0E0,0E0,1.5153189E-2,0E0,2.7402163E-2,6.795019E-2,5.6490432E-2,5.319023E-2,0E0,3.1821493E-2,9.924478E-3,0E0,7.845402E-3,0E0,4.2147636E-3,0E0,0E0,0E0,0E0,0E0,0E0,0E0,0E0,0E0,0E0,0E0,0E0,0E0,0E0,0E0,0E0,0E0,0E0,0E0],"parents":[2147483647,0,0,1,1,2,2,3,3,4,4,5,5,6,6,8,8,9,9,10,10,11,11,13,13,15,15,16,16,18,18,19,19,20,20,21,21,22,22,25,25,27,27,28,28,29,29,30,30,32,32,33,33,35,35,37,37],"right_children":[2,4,6,8,10,12,14,-1,16,18,20,22,-1,24,-1,26,28,-1,30,32,34,36,38,-1,-1,40,-1,42,44,46,48,-1,50,52,-1,54,-1,56,-1,-1,-1,-1,-1,-1,-1,-1,-1,-1,-1,-1,-1,-1,-1,-1,-1,-1,-1],"split_conditions":[3.5308775E-1,-5.276474E-1,1.2344072E0,-9.05273E-1,-4.939313E-2,8.570386E-1,1.6373839E0,-1.997469E-2,-8.4014803E-1,-5.026335E-1,5.1353097E-2,6.1190146E-1,1.6917279E-2,1.4363616E0,4.5138236E-2,-8.801711E-1,-5.529388E-1,6.328275E-3,-4.0169924E-1,-2.4302853E-2,3.2822382E-1,5.8681726E-1,8.0637914E-1,2.4263522E-2,3.0819861E-2,-9.052493E-1,-6.412463E-3,-6.786929E-1,-5.5114657E-1,-4.773356E-1,-2.507651E-1,1.0419922E-2,1.0355613E-3,1.524811E-1,-4.6285717E-3,4.0372965E-1,2.2237375E-3,7.8150946E-1,1.0502949E-2,-7.426931E-3,1.5558407E-3,-1.373887E-2,-8.419501E-3,-2.5348185E-2,-9.15654E-3,-1.12408465E-2,-3.469759E-5,-9.653752E-3,-4.249023E-3,-8.454634E-4,5.912985E-3,-1.2590076E-3,1.0461935E-3,3.6725686E-3,6.357325E-3,8.527392E-3,3.1146498E-3],"split_indices":[0,0,0,0,0,0,0,0,0,0,0,0,0,0,0,0,0,0,0,0,0,0,0,0,0,0,0,0,0,0,0,0,0,0,0,0,0,0,0,0,0,0,0,0,0,0,0,0,0,0,0,0,0,0,0,0,0],"split_type":[0,0,0,0,0,0,0,0,0,0,0,0,0,0,0,0,0,0,0,0,0,0,0,0,0,0,0,0,0,0,0,0,0,0,0,0,0,0,0,0,0,0,0,0,0,0,0,0,0,0,0,0,0,0,0,0,0],"sum_hessian":[1.06E3,6.25E2,4.35E2,4.02E2,2.23E2,2.76E2,1.59E2,3.12E2,9E1,1.09E2,1.14E2,1.82E2,9.4E1,1.28E2,3.1E1,1.8E1,7.2E1,4E0,1.05E2,3.2E1,8.2E1,8.3E1,9.9E1,9.4E1,3.4E1,6E0,1.2E1,5.9E1,1.3E1,2.3E1,8.2E1,4E0,2.8E1,7.6E1,6E0,7.6E1,7E0,7.3E1,2.6E1,3E0,3E0,3.6E1,2.3E1,6E0,7E0,5E0,1.8E1,3E1,5.2E1,1.1E1,1.7E1,3E1,4.6E1,2E1,5.6E1,7E1,3E0],"tree_param":{"num_deleted":"0","num_feature":"2","num_nodes":"57","size_leaf_vector":"1"}},{"base_weights":[-2.850276E-3,-4.6979804E-2,3.067576E-2,-5.879231E-2,-1.8665213E-2,3.864877E-2,7.312478E-3,-7.844822E-3,-5.318768E-2,-2.1629931E-2,-1.2836828E-3,2.6201578E-3,4.4320263E-2,-9.7181285E-3,7.3148995E-3,-5.7559875E-3,-4.627533E-3,-2.503758E-3,-1.8527173E-3,5.0909508E-2,3.0071747E-2,-2.911585E-2,1.140067E-2,4.4880765E-3,6.774129E-3,1.5251565E-2,6.4000823E-3,-1.5575816E-2,-9.663095E-3,4.6056833E-2,-2.045041E-2,8.505797E-4,2.0604178E-3,-3.7119116E-3,6.0195294E-3,5.684295E-3,2.2258721E-3,-4.30488E-3,6.250931E-4],"categories":[],"categories_nodes":[],"categories_segments":[],"categories_sizes":[],"default_left":[0,0,0,0,0,0,0,0,0,0,0,0,0,0,0,0,0,0,0,0,0,0,0,0,0,0,0,0,0,0,0,0,0,0,0,0,0,0,0],"id":23,"left_children":[1,3,5,7,9,11,13,-1,15,17,-1,-1,19,21,-1,-1,-1,-1,-1,23,25,27,29,-1,-1,31,-1,33,-1,35,37,-1,-1,-1,-1,-1,-1,-1,-1],"loss_changes":[1.6244396E0,1.5743971E-1,1.15953445E-1,3.2622337E-2,2.1587536E-3,3.1665027E-2,1.801086E-1,0E0,5.284786E-3,5.088523E-4,0E0,0E0,2.832514E-2,5.276798E-2,0E0,0E0,0E0,0E0,0E0,1.8878222E-2,5.0815903E-2,5.9743397E-2,6.9379725E-2,0E0,0E0,2.4605915E-3,0E0,9.5278904E-2,0E0,6.435424E-3,2.0181535E-2,0E0,0E0,0E0,0E0,0E0,0E0,0E0,0E0],"parents":[2147483647,0,0,1,1,2,2,3,3,4,4,5,5,6,6,8,8,9,9,12,12,13,13,19,19,20,20,21,21,22,22,25,25,27,27,29,29,30,30],"right_children":[2,4,6,8,10,12,14,-1,16,18,-1,-1,20,22,-1,-1,-1,-1,-1,24,26,28,30,-1,-1,32,-1,34,-1,36,38,-1,-1,-1,-1,-1,-1,-1,-1],"split_conditions":[-2.2643787E-1,-5.46559E-1,8.406325E-1,-1.0800941E0,-3.331449E-1,9.368324E-2,2.227824E0,-7.844822E-3,-7.5997305E-1,-4.3985194E-1,-1.2836828E-3,2.6201578E-3,5.205114E-1,1.2674606E0,7.3148995E-3,-5.7559875E-3,-4.627533E-3,-2.503758E-3,-1.8527173E-3,4.1380435E-1,7.3392546E-1,1.1607536E0,1.5875818E0,4.4880765E-3,6.774129E-3,6.272184E-1,6.4000823E-3,1.0540465E0,-9.663095E-3,1.4808747E0,1.8009958E0,8.505797E-4,2.0604178E-3,-3.7119116E-3,6.0195294E-3,5.684295E-3,2.2258721E-3,-4.30488E-3,6.250931E-4],"split_indices":[1,1,1,1,1,1,1,0,1,1,0,0,1,1,0,0,0,0,0,1,1,1,1,0,0,1,0,1,0,1,1,0,0,0,0,0,0,0,0],"split_type":[0,0,0,0,0,0,0,0,0,0,0,0,0,0,0,0,0,0,0,0,0,0,0,0,0,0,0,0,0,0,0,0,0,0,0,0,0,0,0],"sum_hessian":[1.096E3,4.73E2,6.23E2,3.33E2,1.4E2,4.64E2,1.59E2,7.1E1,2.62E2,9.1E1,4.9E1,1.47E2,3.17E2,1.27E2,3.2E1,1.56E2,1.06E2,4E1,5.1E1,2.15E2,1.02E2,6.6E1,6.1E1,1.61E2,5.4E1,7.2E1,3E1,5.6E1,1E1,2.9E1,3.2E1,3.3E1,3.9E1,4.4E1,1.2E1,1.9E1,1E1,1.7E1,1.5E1],"tree_param":{"num_deleted":"0","num_feature":"2","num_nodes":"39","size_leaf_vector":"1"}},{"base_weights":[7.316516E-3,-3.727695E-2,4.7376767E-2,-5.22374E-2,-1.0340842E-2,5.1550984E-2,3.4322195E-2,-6.175502E-2,-4.2118425E-3,-2.2197949E-2,1.2534462E-3,4.2388894E-2,5.5879634E-2,-1.6757183E-3,4.3670584E-2,-7.0061386E-3,-5.453586E-3,-1.005411E-3,-3.117341E-3,1.2144711E-3,-1.0359675E-3,4.6598148E-2,3.4432597E-3,5.956301E-3,5.0678063E-2,5.700461E-2,2.9402059E-2,3.5848722E-3,5.8013806E-3,3.6315823E-3,5.563937E-2,3.9666858E-2,9.415495E-3,-2.0614747E-2,6.0217883E-2,4.81056E-3,6.079923E-3,4.879571E-3,3.7491947E-4,8.6826173E-4,-5.6028236E-3,6.596666E-3,3.4364436E-3],"categories":[],"categories_nodes":[],"categories_segments":[],"categories_sizes":[],"default_left":[0,0,0,0,0,0,0,0,0,0,0,0,0,0,0,0,0,0,0,0,0,0,0,0,0,0,0,0,0,0,0,0,0,0,0,0,0,0,0,0,0,0,0],"id":24,"left_children":[1,3,5,7,9,11,13,15,-1,17,19,21,23,-1,25,-1,-1,-1,-1,-1,-1,27,-1,-1,29,31,33,-1,-1,-1,35,37,-1,39,41,-1,-1,-1,-1,-1,-1,-1,-1],"loss_changes":[1.9739797E0,2.1021646E-1,2.9945374E-2,2.9758692E-2,2.587307E-2,1.5041828E-2,6.949322E-2,6.4331293E-3,0E0,9.823259E-3,1.2268047E-2,3.2515824E-3,2.6333928E-3,0E0,2.1535292E-2,0E0,0E0,0E0,0E0,0E0,0E0,9.209767E-3,0E0,0E0,7.1713626E-3,3.619957E-2,9.526123E-2,0E0,0E0,0E0,7.2929263E-4,1.4244087E-2,0E0,2.5386997E-2,3.3808649E-3,0E0,0E0,0E0,0E0,0E0,0E0,0E0,0E0],"parents":[2147483647,0,0,1,1,2,2,3,3,4,4,5,5,6,6,7,7,9,9,10,10,11,11,12,12,14,14,21,21,24,24,25,25,26,26,30,30,31,31,33,33,34,34],"right_children":[2,4,6,8,10,12,14,16,-1,18,20,22,24,-1,26,-1,-1,-1,-1,-1,-1,28,-1,-1,30,32,34,-1,-1,-1,36,38,-1,40,42,-1,-1,-1,-1,-1,-1,-1,-1],"split_conditions":[-1.1973083E-1,-5.46559E-1,9.4733953E-1,-8.666801E-1,-3.331449E-1,2.0039028E-1,1.0540465E0,-1.0800941E0,-4.2118425E-3,-4.3985194E-1,-2.2643787E-1,9.368324E-2,5.205114E-1,-1.6757183E-3,1.6942887E0,-7.0061386E-3,-5.453586E-3,-1.005411E-3,-3.117341E-3,1.2144711E-3,-1.0359675E-3,-1.3023795E-2,3.4432597E-3,5.956301E-3,6.272184E-1,1.4808747E0,2.227824E0,3.5848722E-3,5.8013806E-3,3.6315823E-3,7.3392546E-1,1.3741677E0,9.415495E-3,1.9077028E0,3.0814803E0,4.81056E-3,6.079923E-3,4.879571E-3,3.7491947E-4,8.6826173E-4,-5.6028236E-3,6.596666E-3,3.4364436E-3],"split_indices":[1,1,1,1,1,1,1,1,0,1,1,1,1,0,1,0,0,0,0,0,0,1,0,0,1,1,1,0,0,0,1,1,0,1,1,0,0,0,0,0,0,0,0],"split_type":[0,0,0,0,0,0,0,0,0,0,0,0,0,0,0,0,0,0,0,0,0,0,0,0,0,0,0,0,0,0,0,0,0,0,0,0,0,0,0,0,0,0,0],"sum_hessian":[1.103E3,5.22E2,5.81E2,3.35E2,1.87E2,4.38E2,1.43E2,1.7E2,1.65E2,9.2E1,9.5E1,1.44E2,2.94E2,2.2E1,1.21E2,7.5E1,9.5E1,4E1,5.2E1,4.9E1,4.6E1,9.1E1,5.3E1,1.66E2,1.28E2,6.1E1,6E1,4.9E1,4.2E1,3.5E1,9.3E1,4.3E1,1.8E1,2.3E1,3.7E1,4.2E1,5.1E1,3.4E1,9E0,1.3E1,1E1,2.9E1,8E0],"tree_param":{"num_deleted":"0","num_feature":"2","num_nodes":"43","size_leaf_vector":"1"}},{"base_weights":[-4.5970767E-3,-1.1099644E-1,1.5254965E-1,-1.6246055E-1,-3.794521E-2,7.740123E-2,2.6679724E-1,-1.8071654E-1,-1.1459902E-1,-5.7455007E-2,-9.391498E-6,5.277332E-2,1.23100124E-1,2.3557922E-1,4.056694E-2,-1.7759836E-1,-2.5106443E-2,-4.788098E-2,-1.2341035E-1,-9.055867E-2,-4.665046E-2,1.2062777E-2,-4.0757074E-3,3.958316E-2,7.553677E-2,9.807886E-2,1.3769443E-1,2.1610398E-2,2.6609182E-2,-1.8091956E-1,-4.995043E-2,-6.1918434E-2,2.6922525E-4,-1.9481216E-2,-1.1439827E-1,-7.925257E-3,-1.0685892E-1,-4.01004E-2,-7.5000726E-2,-8.504289E-3,-2.6239993E-4,5.2849293E-2,3.0742195E-2,1.6085565E-2,6.687934E-2,1.3859182E-2,8.576695E-3,1.8027699E-2,1.277287E-1,-1.8256849E-2,-1.1574709E-2,-7.016261E-3,-2.3790598E-3,-1.7829636E-3,-9.568749E-3,-1.0331798E-2,-1.6321134E-2,-3.1072856E-3,4.1011693E-3,-1.2309708E-2,-8.242457E-3,-4.914338E-3,1.279274E-3,-8.635571E-3,-5.373068E-3,7.88477E-3,-5.0829863E-4,3.4584515E-3,1.1800683E-2,-8.998799E-3,3.7593383E-3,4.2146877E-3,7.529773E-3,9.197359E-3,1.4998331E-2],"categories":[],"categories_nodes":[],"categories_segments":[],"categories_sizes":[],"default_left":[0,0,0,0,0,0,0,0,0,0,0,0,0,0,0,0,0,0,0,0,0,0,0,0,0,0,0,0,0,0,0,0,0,0,0,0,0,0,0,0,0,0,0,0,0,0,0,0,0,0,0,0,0,0,0,0,0,0,0,0,0,0,0,0,0,0,0,0,0,0,0,0,0,0,0],"id":25,"left_children":[1,3,5,7,9,11,13,15,17,19,21,23,25,27,-1,29,-1,31,33,35,37,-1,39,41,43,45,47,-1,-1,49,51,53,-1,-1,55,57,59,61,63,-1,65,67,69,-1,71,-1,-1,-1,73,-1,-1,-1,-1,-1,-1,-1,-1,-1,-1,-1,-1,-1,-1,-1,-1,-1,-1,-1,-1,-1,-1,-1,-1,-1,-1],"loss_changes":[1.7890947E1,2.3924074E0,3.6882963E0,3.060751E-1,1.9613123E-1,2.8837633E-1,6.45772E-1,1.4419556E-2,5.6405783E-2,5.836773E-2,4.5131583E-2,4.8653603E-2,1.9725323E-2,2.6878834E-2,0E0,1.0161209E-1,0E0,1.0105573E-2,3.7557364E-2,5.57248E-2,2.187568E-2,0E0,2.7456678E-2,1.1393964E-2,3.5037935E-2,6.56873E-3,3.1352043E-4,0E0,0E0,6.164551E-3,2.5607683E-3,1.4671132E-2,0E0,0E0,2.911067E-2,1.0336532E-2,3.740698E-3,5.372125E-2,1.1565387E-3,0E0,3.3197485E-2,4.7092564E-2,6.0455985E-2,0E0,8.90246E-3,0E0,0E0,0E0,2.4399877E-2,0E0,0E0,0E0,0E0,0E0,0E0,0E0,0E0,0E0,0E0,0E0,0E0,0E0,0E0,0E0,0E0,0E0,0E0,0E0,0E0,0E0,0E0,0E0,0E0,0E0,0E0],"parents":[2147483647,0,0,1,1,2,2,3,3,4,4,5,5,6,6,7,7,8,8,9,9,10,10,11,11,12,12,13,13,15,15,17,17,18,18,19,19,20,20,22,22,23,23,24,24,25,25,26,26,29,29,30,30,31,31,34,34,35,35,36,36,37,37,38,38,40,40,41,41,42,42,44,44,48,48],"right_children":[2,4,6,8,10,12,14,16,18,20,22,24,26,28,-1,30,-1,32,34,36,38,-1,40,42,44,46,48,-1,-1,50,52,54,-1,-1,56,58,60,62,64,-1,66,68,70,-1,72,-1,-1,-1,74,-1,-1,-1,-1,-1,-1,-1,-1,-1,-1,-1,-1,-1,-1,-1,-1,-1,-1,-1,-1,-1,-1,-1,-1,-1,-1],"split_conditions":[3.5308775E-1,-6.284268E-1,1.1842523E0,-1.1318178E0,2.6101455E-2,8.0661887E-1,1.6373839E0,-1.1570288E0,-1.0311272E0,-4.773356E-1,2.6322711E-2,6.805754E-1,9.3252933E-1,1.4106308E0,4.056694E-2,-1.1822137E0,-2.5106443E-2,-1.0371279E0,-9.808289E-1,-5.9736896E-1,-7.448068E-2,1.2062777E-2,5.0958097E-2,4.5464152E-1,6.8071634E-1,8.318039E-1,9.5774066E-1,2.1610398E-2,2.6609182E-2,-1.232549E0,-1.1821892E0,-1.0819743E0,2.6922525E-4,-1.9481216E-2,-7.03861E-1,-6.0320646E-1,-5.5114657E-1,-9.988215E-2,-2.382242E-2,-8.504289E-3,5.1353097E-2,4.4908473E-1,4.7910044E-1,1.6085565E-2,7.059053E-1,1.3859182E-2,8.576695E-3,1.8027699E-2,1.0580786E0,-1.8256849E-2,-1.1574709E-2,-7.016261E-3,-2.3790598E-3,-1.7829636E-3,-9.568749E-3,-1.0331798E-2,-1.6321134E-2,-3.1072856E-3,4.1011693E-3,-1.2309708E-2,-8.242457E-3,-4.914338E-3,1.279274E-3,-8.635571E-3,-5.373068E-3,7.88477E-3,-5.0829863E-4,3.4584515E-3,1.1800683E-2,-8.998799E-3,3.7593383E-3,4.2146877E-3,7.529773E-3,9.197359E-3,1.4998331E-2],"split_indices":[0,0,0,0,0,0,0,0,0,0,0,0,0,0,0,0,0,0,0,0,0,0,0,0,0,0,0,0,0,0,0,0,0,0,0,0,0,0,0,0,0,0,0,0,0,0,0,0,0,0,0,0,0,0,0,0,0,0,0,0,0,0,0,0,0,0,0,0,0,0,0,0,0,0,0],"split_type":[0,0,0,0,0,0,0,0,0,0,0,0,0,0,0,0,0,0,0,0,0,0,0,0,0,0,0,0,0,0,0,0,0,0,0,0,0,0,0,0,0,0,0,0,0,0,0,0,0,0,0,0,0,0,0,0,0,0,0,0,0,0,0,0,0,0,0,0,0,0,0,0,0,0,0],"sum_hessian":[1.068E3,6.37E2,4.31E2,3.73E2,2.64E2,2.61E2,1.7E2,2.68E2,1.05E2,1.74E2,9E1,1.71E2,9E1,1.41E2,2.9E1,2.6E2,8E0,1.3E1,9.2E1,4.1E1,1.33E2,2E0,8.8E1,1.1E2,6.1E1,3.6E1,5.4E1,9.1E1,5E1,2.53E2,7E0,1E1,3E0,8E0,8.4E1,7E0,3.4E1,1.1E2,2.3E1,3E0,8.5E1,4.2E1,6.8E1,4E0,5.7E1,6E0,3E1,7E0,4.7E1,2.45E2,8E0,3E0,4E0,5E0,5E0,7.1E1,1.3E1,5E0,2E0,1.8E1,1.6E1,9.4E1,1.6E1,1.3E1,1E1,4E0,8.1E1,3.4E1,8E0,3E0,6.5E1,1.6E1,4.1E1,2E1,2.7E1],"tree_param":{"num_deleted":"0","num_feature":"2","num_nodes":"75","size_leaf_vector":"1"}},{"base_weights":[-6.325109E-4,-3.0335732E-2,1.4117266E-2,-4.00553E-2,-2.2139663E-2,2.226052E-2,-1.0211091E-2,-4.5271325E-3,-3.5845183E-3,-2.698652E-2,-1.4713804E-2,-1.2137574E-3,3.124612E-2,-1.4404693E-2,4.1141033E-2,-1.8921795E-3,-3.528523E-3,-3.829873E-4,-2.550199E-3,1.6492688E-3,-9.881487E-3,2.7251296E-2,3.8820617E-2,-1.2699626E-2,-1.5042788E-2,5.9317844E-3,1.4490247E-2,-6.5203506E-4,-1.3676002E-3,3.3684757E-2,3.2136068E-4,4.3561137E-3,2.7120893E-3,-1.6232094E-2,1.7639391E-2,-1.592668E-3,2.9842353E-3,3.7649197E-3,2.97755E-3,-9.7418326E-4,-4.8553343E-3,2.4821965E-3,-1.3705104E-3],"categories":[],"categories_nodes":[],"categories_segments":[],"categories_sizes":[],"default_left":[0,0,0,0,0,0,0,0,0,0,0,0,0,0,0,0,0,0,0,0,0,0,0,0,0,0,0,0,0,0,0,0,0,0,0,0,0,0,0,0,0,0,0],"id":26,"left_children":[1,3,5,7,9,11,13,-1,-1,15,17,19,21,23,25,-1,-1,-1,-1,-1,27,29,31,33,-1,-1,35,-1,-1,37,-1,-1,-1,39,41,-1,-1,-1,-1,-1,-1,-1,-1],"loss_changes":[4.7403154E-1,2.7711928E-2,1.4346227E-1,1.956731E-3,6.693378E-3,1.1436221E-1,3.9786384E-2,0E0,0E0,7.2296932E-3,9.295758E-3,2.333765E-2,1.08035505E-2,3.7285537E-2,5.9224367E-3,0E0,0E0,0E0,0E0,0E0,1.2117233E-3,4.009959E-2,6.195113E-3,1.829116E-2,0E0,0E0,3.7440367E-3,0E0,0E0,2.0560622E-3,0E0,0E0,0E0,3.1202786E-2,4.3926025E-3,0E0,0E0,0E0,0E0,0E0,0E0,0E0,0E0],"parents":[2147483647,0,0,1,1,2,2,3,3,4,4,5,5,6,6,9,9,10,10,11,11,12,12,13,13,14,14,20,20,21,21,22,22,23,23,26,26,29,29,33,33,34,34],"right_children":[2,4,6,8,10,12,14,-1,-1,16,18,20,22,24,26,-1,-1,-1,-1,-1,28,30,32,34,-1,-1,36,-1,-1,38,-1,-1,-1,40,42,-1,-1,-1,-1,-1,-1,-1,-1],"split_conditions":[-4.3985194E-1,-8.666801E-1,7.3392546E-1,-1.0800941E0,-6.53266E-1,-1.1973083E-1,2.868066E0,-4.5271325E-3,-3.5845183E-3,-7.5997305E-1,-5.46559E-1,-3.331449E-1,4.1380435E-1,2.7613592E0,3.0814803E0,-1.8921795E-3,-3.528523E-3,-3.829873E-4,-2.550199E-3,1.6492688E-3,-2.2643787E-1,3.0709732E-1,6.272184E-1,2.227824E0,-1.5042788E-2,5.9317844E-3,3.5083084E0,-6.5203506E-4,-1.3676002E-3,9.368324E-2,3.2136068E-4,4.3561137E-3,2.7120893E-3,1.6942887E0,2.654652E0,-1.592668E-3,2.9842353E-3,3.7649197E-3,2.97755E-3,-9.7418326E-4,-4.8553343E-3,2.4821965E-3,-1.3705104E-3],"split_indices":[1,1,1,1,1,1,1,0,0,1,1,1,1,1,1,0,0,0,0,0,1,1,1,1,0,0,1,0,0,1,0,0,0,1,1,0,0,0,0,0,0,0,0],"split_type":[0,0,0,0,0,0,0,0,0,0,0,0,0,0,0,0,0,0,0,0,0,0,0,0,0,0,0,0,0,0,0,0,0,0,0,0,0,0,0,0,0,0,0],"sum_hessian":[1.08E3,3.58E2,7.22E2,1.62E2,1.96E2,5.41E2,1.81E2,6.8E1,9.4E1,1.17E2,7.9E1,1.5E2,3.91E2,1.68E2,1.3E1,6.1E1,5.6E1,4E1,3.9E1,4.9E1,1.01E2,2.59E2,1.32E2,1.67E2,1E0,7E0,6E0,5.5E1,4.6E1,2.04E2,5.5E1,9.2E1,4E1,1.5E2,1.7E1,2E0,4E0,9.7E1,1.07E2,1.26E2,2.4E1,1.4E1,3E0],"tree_param":{"num_deleted":"0","num_feature":"2","num_nodes":"43","size_leaf_vector":"1"}},{"base_weights":[6.008329E-3,-2.1719996E-2,2.6650278E-2,-2.8987644E-2,-4.5187473E-3,3.5456173E-2,2.1939534E-3,-4.151262E-3,-2.5463382E-2,1.304197E-3,-1.1016673E-2,9.359708E-3,4.6564758E-2,-5.0344642E-2,2.0395288E-2,-2.6272484E-3,-2.106778E-3,-4.421536E-4,-1.8059955E-3,1.3651955E-3,7.2053378E-3,5.3525916E-3,4.2578273E-2,-3.526517E-3,-6.7536333E-3,8.20182E-3,3.827759E-2,7.9397945E-4,6.266345E-4,3.6417414E-3,4.8565003E-3,2.5661591E-2,-7.704183E-2,4.6171535E-2,2.1678815E-2,1.8053371E-3,6.9304975E-3,-1.0526252E-2,1.2770351E-3,4.0892023E-3,6.7558424E-3,-1.42906485E-2,3.976657E-3],"categories":[],"categories_nodes":[],"categories_segments":[],"categories_sizes":[],"default_left":[0,0,0,0,0,0,0,0,0,0,0,0,0,0,0,0,0,0,0,0,0,0,0,0,0,0,0,0,0,0,0,0,0,0,0,0,0,0,0,0,0,0,0],"id":27,"left_children":[1,3,5,7,9,11,13,-1,15,-1,17,19,21,23,25,-1,-1,-1,-1,-1,27,-1,29,-1,-1,31,33,-1,-1,-1,-1,35,37,39,41,-1,-1,-1,-1,-1,-1,-1,-1],"loss_changes":[6.221691E-1,5.7874903E-2,1.3409135E-1,1.3332993E-2,1.6004726E-2,1.3233596E-1,1.5976804E-1,0E0,3.605038E-4,0E0,4.6581915E-3,1.177731E-3,6.628871E-3,8.7656975E-3,2.672391E-2,0E0,0E0,0E0,0E0,0E0,1.5073456E-5,0E0,5.94002E-3,0E0,0E0,1.1360212E-1,5.5505484E-3,0E0,0E0,0E0,0E0,1.966786E-2,3.429354E-2,9.635091E-4,5.926851E-2,0E0,0E0,0E0,0E0,0E0,0E0,0E0,0E0],"parents":[2147483647,0,0,1,1,2,2,3,3,4,4,5,5,6,6,8,8,10,10,11,11,12,12,13,13,14,14,20,20,22,22,25,25,26,26,31,31,32,32,33,33,34,34],"right_children":[2,4,6,8,10,12,14,-1,16,-1,18,20,22,24,26,-1,-1,-1,-1,-1,28,-1,30,-1,-1,32,34,-1,-1,-1,-1,36,38,40,42,-1,-1,-1,-1,-1,-1,-1,-1],"split_conditions":[-2.2643787E-1,-5.46559E-1,8.406325E-1,-1.0800941E0,-4.3985194E-1,9.368324E-2,1.0540465E0,-4.151262E-3,-6.53266E-1,1.304197E-3,-3.331449E-1,-1.1973083E-1,3.0709732E-1,9.4733953E-1,2.0144098E0,-2.6272484E-3,-2.106778E-3,-4.421536E-4,-1.8059955E-3,1.3651955E-3,-1.3023795E-2,5.3525916E-3,5.205114E-1,-3.526517E-3,-6.7536333E-3,1.6942887E0,2.7613592E0,7.9397945E-4,6.266345E-4,3.6417414E-3,4.8565003E-3,1.5875818E0,1.8009958E0,2.654652E0,2.868066E0,1.8053371E-3,6.9304975E-3,-1.0526252E-2,1.2770351E-3,4.0892023E-3,6.7558424E-3,-1.42906485E-2,3.976657E-3],"split_indices":[1,1,1,1,1,1,1,0,1,0,1,1,1,1,1,0,0,0,0,0,1,0,1,0,0,1,1,0,0,0,0,1,1,1,1,0,0,0,0,0,0,0,0],"split_type":[0,0,0,0,0,0,0,0,0,0,0,0,0,0,0,0,0,0,0,0,0,0,0,0,0,0,0,0,0,0,0,0,0,0,0,0,0,0,0,0,0,0,0],"sum_hessian":[1.085E3,4.63E2,6.22E2,3.25E2,1.38E2,4.57E2,1.65E2,6.9E1,2.56E2,3.7E1,1.01E2,1.37E2,3.2E2,4.2E1,1.23E2,2.12E2,4.4E1,5.3E1,4.8E1,4.4E1,9.3E1,1.12E2,2.08E2,2.4E1,1.8E1,7.4E1,4.9E1,4.8E1,4.5E1,1.06E2,1.02E2,6.2E1,1.2E1,3.2E1,1.7E1,5.4E1,8E0,9E0,3E0,2.8E1,4E0,1E0,1.6E1],"tree_param":{"num_deleted":"0","num_feature":"2","num_nodes":"43","size_leaf_vector":"1"}},{"base_weights":[-5.5346526E-3,-2.5991159E-2,7.731948E-3,-3.362764E-2,-1.6663607E-2,1.6945815E-2,-3.4255575E-2,-3.6896523E-3,-3.1906687E-2,-1.9946257E-3,-1.5241677E-2,1.3371645E-2,5.064328E-3,-6.9964066E-2,2.4709469E-2,-2.9136569E-3,-3.5592304E-3,-1.2889109E-3,-1.8904638E-3,-3.0243264E-3,1.712215E-2,-5.8969688E-2,-1.440373E-2,1.6607717E-2,4.628046E-2,1.5134304E-3,-1.96389E-3,2.4990125E-3,1.5936911E-2,-7.2133735E-2,7.376671E-3,2.5082128E-2,-1.35761155E-2,6.813674E-3,1.306806E-2,1.1667227E-3,1.9538447E-3,-4.3798042E-3,-1.3456279E-2,9.2623086E-4,2.8843165E-4,1.6610128E-3,7.0897713E-3,-1.7516057E-3,3.2739134E-3],"categories":[],"categories_nodes":[],"categories_segments":[],"categories_sizes":[],"default_left":[0,0,0,0,0,0,0,0,0,0,0,0,0,0,0,0,0,0,0,0,0,0,0,0,0,0,0,0,0,0,0,0,0,0,0,0,0,0,0,0,0,0,0,0,0],"id":28,"left_children":[1,3,5,7,9,11,13,-1,15,-1,17,19,-1,21,23,-1,-1,-1,-1,25,27,29,-1,31,33,-1,-1,-1,35,37,39,41,-1,-1,43,-1,-1,-1,-1,-1,-1,-1,-1,-1,-1],"loss_changes":[2.9737115E-1,3.0139625E-2,2.578473E-1,1.5041232E-4,6.108582E-4,6.5083325E-2,2.5439507E-1,0E0,6.16923E-4,0E0,9.7138435E-4,3.0490905E-2,0E0,5.2585334E-2,7.2704796E-3,0E0,0E0,0E0,0E0,2.8355125E-2,3.359884E-3,5.9048995E-2,0E0,4.8598465E-2,7.820377E-3,0E0,0E0,0E0,5.200267E-3,9.3168765E-2,7.493602E-5,1.2019467E-2,0E0,0E0,4.1831946E-3,0E0,0E0,0E0,0E0,0E0,0E0,0E0,0E0,0E0,0E0],"parents":[2147483647,0,0,1,1,2,2,3,3,4,4,5,5,6,6,8,8,10,10,11,11,13,13,14,14,19,19,20,20,21,21,23,23,24,24,28,28,29,29,30,30,31,31,34,34],"right_children":[2,4,6,8,10,12,14,-1,16,-1,18,20,-1,22,24,-1,-1,-1,-1,26,28,30,-1,32,34,-1,-1,-1,36,38,40,42,-1,-1,44,-1,-1,-1,-1,-1,-1,-1,-1,-1,-1],"split_conditions":[-3.331449E-1,-7.5997305E-1,9.4733953E-1,-1.0800941E0,-6.53266E-1,7.3392546E-1,1.8009958E0,-3.6896523E-3,-8.666801E-1,-1.9946257E-3,-4.3985194E-1,-1.1973083E-1,5.064328E-3,1.6942887E0,2.868066E0,-2.9136569E-3,-3.5592304E-3,-1.2889109E-3,-1.8904638E-3,-2.2643787E-1,-1.3023795E-2,1.4808747E0,-1.440373E-2,2.7613592E0,3.4016013E0,1.5134304E-3,-1.96389E-3,2.4990125E-3,3.0709732E-1,1.2674606E0,1.5875818E0,2.547945E0,-1.35761155E-2,6.813674E-3,3.5083084E0,1.1667227E-3,1.9538447E-3,-4.3798042E-3,-1.3456279E-2,9.2623086E-4,2.8843165E-4,1.6610128E-3,7.0897713E-3,-1.7516057E-3,3.2739134E-3],"split_indices":[1,1,1,1,1,1,1,0,1,0,1,1,0,1,1,0,0,0,0,1,1,1,0,1,1,0,0,0,1,1,1,1,0,0,1,0,0,0,0,0,0,0,0,0,0],"split_type":[0,0,0,0,0,0,0,0,0,0,0,0,0,0,0,0,0,0,0,0,0,0,0,0,0,0,0,0,0,0,0,0,0,0,0,0,0,0,0,0,0,0,0,0,0],"sum_hessian":[1.094E3,4.3E2,6.64E2,2.35E2,1.95E2,5.45E2,1.19E2,7.4E1,1.61E2,5.5E1,1.4E2,4.94E2,5.1E1,7.4E1,4.5E1,9.7E1,6.4E1,8.8E1,5.2E1,9.2E1,4.02E2,6.6E1,8E0,3.4E1,1.1E1,4.4E1,4.8E1,5E1,3.52E2,5.5E1,1.1E1,3.3E1,1E0,6E0,5E0,1.63E2,1.89E2,3.9E1,1.6E1,7E0,4E0,2.9E1,4E0,2E0,3E0],"tree_param":{"num_deleted":"0","num_feature":"2","num_nodes":"45","size_leaf_vector":"1"}},{"base_weights":[1.2634009E-3,-9.124826E-2,1.4002798E-1,-1.4946845E-1,-4.239429E-2,7.1095616E-2,2.3493944E-1,-1.5867314E-1,-9.9455416E-2,-6.949663E-2,-8.207118E-3,4.606862E-2,1.1944988E-2,2.0042777E-1,3.613543E-2,-1.5393833E-2,-2.4755307E-1,-1.7801937E-2,-1.4227752E-1,-8.351531E-2,-5.389437E-2,-1.557304E-2,1.3372191E-2,1.1461265E-2,4.3712325E-2,1.8264947E-2,2.3876535E-2,-3.806945E-2,-1.1708735E-1,-5.67798E-2,6.4186454E-3,-1.0818781E-1,-2.3102319E-2,-7.421643E-2,-1.3312094E-1,-4.704323E-2,-1.499628E-2,-6.6071725E-3,-2.8697401E-2,1.1264307E-2,-4.0420325E-4,3.305522E-3,4.657706E-2,-3.0083328E-3,-1.7481953E-2,-7.364817E-3,-2.5716485E-3,1.9157649E-3,-1.5247489E-3,-2.4408592E-2,-7.0679314E-3,-8.019244E-3,7.28218E-3,-2.1410894E-2,-1.0419134E-2,-5.969422E-3,-1.7501619E-3,-2.474441E-3,3.0698315E-3,-5.7866457E-3,-5.795702E-4,6.8198127E-4,-8.454966E-3,3.2264702E-3,-1.5207157E-3,2.0047037E-2,4.2191963E-3],"categories":[],"categories_nodes":[],"categories_segments":[],"categories_sizes":[],"default_left":[0,0,0,0,0,0,0,0,0,0,0,0,0,0,0,0,0,0,0,0,0,0,0,0,0,0,0,0,0,0,0,0,0,0,0,0,0,0,0,0,0,0,0,0,0,0,0,0,0,0,0,0,0,0,0,0,0,0,0,0,0,0,0,0,0,0,0],"id":29,"left_children":[1,3,5,7,9,11,13,15,17,19,21,23,-1,25,-1,-1,27,29,31,33,35,37,39,-1,41,-1,-1,-1,43,45,47,49,-1,51,53,55,-1,57,59,-1,61,63,65,-1,-1,-1,-1,-1,-1,-1,-1,-1,-1,-1,-1,-1,-1,-1,-1,-1,-1,-1,-1,-1,-1,-1,-1],"loss_changes":[1.3992642E1,1.8538275E0,2.8358145E0,1.2140465E-1,3.3020884E-1,3.018782E-1,7.259655E-1,6.709957E-2,1.6879928E-1,3.902495E-2,2.5481533E-2,2.2285253E-2,0E0,5.589962E-2,0E0,0E0,1.4649975E-1,1.7357647E-2,7.181615E-2,3.763169E-2,5.6788564E-2,1.3813272E-2,5.6116913E-2,0E0,1.8945575E-2,0E0,0E0,0E0,2.9901378E-2,1.7739404E-3,3.604165E-3,1.1018151E-1,0E0,8.404416E-2,1.283595E-2,3.3338457E-2,0E0,4.947614E-2,3.1729635E-2,0E0,2.3067731E-2,6.9239982E-3,9.546679E-2,0E0,0E0,0E0,0E0,0E0,0E0,0E0,0E0,0E0,0E0,0E0,0E0,0E0,0E0,0E0,0E0,0E0,0E0,0E0,0E0,0E0,0E0,0E0,0E0],"parents":[2147483647,0,0,1,1,2,2,3,3,4,4,5,5,6,6,7,7,8,8,9,9,10,10,11,11,13,13,16,16,17,17,18,18,19,19,20,20,21,21,22,22,24,24,28,28,29,29,30,30,31,31,33,33,34,34,35,35,37,37,38,38,40,40,41,41,42,42],"right_children":[2,4,6,8,10,12,14,16,18,20,22,24,-1,26,-1,-1,28,30,32,34,36,38,40,-1,42,-1,-1,-1,44,46,48,50,-1,52,54,56,-1,58,60,-1,62,64,66,-1,-1,-1,-1,-1,-1,-1,-1,-1,-1,-1,-1,-1,-1,-1,-1,-1,-1,-1,-1,-1,-1,-1,-1],"split_conditions":[4.0372965E-1,-9.556289E-1,1.2054352E0,-1.1822137E0,-1.251141E-1,8.570386E-1,1.587084E0,-1.2334164E0,-1.0819743E0,-5.5114657E-1,2.5267085E-1,4.2078716E-1,1.1944988E-2,1.4106308E0,3.613543E-2,-1.5393833E-2,-1.232549E0,-1.1570288E0,-9.807872E-1,-5.9736896E-1,-1.7176431E-1,1.0158946E-1,2.5274053E-1,1.1461265E-2,4.4908473E-1,1.8264947E-2,2.3876535E-2,-3.806945E-2,-1.2073627E0,-1.1821892E0,-1.1066762E0,-1.081504E0,-2.3102319E-2,-6.0320646E-1,-5.7800806E-1,-2.7598593E-1,-1.499628E-2,2.3321683E-2,1.524811E-1,1.1264307E-2,3.787355E-1,4.2900956E-1,4.541451E-1,-3.0083328E-3,-1.7481953E-2,-7.364817E-3,-2.5716485E-3,1.9157649E-3,-1.5247489E-3,-2.4408592E-2,-7.0679314E-3,-8.019244E-3,7.28218E-3,-2.1410894E-2,-1.0419134E-2,-5.969422E-3,-1.7501619E-3,-2.474441E-3,3.0698315E-3,-5.7866457E-3,-5.795702E-4,6.8198127E-4,-8.454966E-3,3.2264702E-3,-1.5207157E-3,2.0047037E-2,4.2191963E-3],"split_indices":[0,0,0,0,0,0,0,0,0,0,0,0,0,0,0,0,0,0,0,0,0,0,0,0,0,0,0,0,0,0,0,0,0,0,0,0,0,0,0,0,0,0,0,0,0,0,0,0,0,0,0,0,0,0,0,0,0,0,0,0,0,0,0,0,0,0,0],"split_type":[0,0,0,0,0,0,0,0,0,0,0,0,0,0,0,0,0,0,0,0,0,0,0,0,0,0,0,0,0,0,0,0,0,0,0,0,0,0,0,0,0,0,0,0,0,0,0,0,0,0,0,0,0,0,0,0,0,0,0,0,0,0,0,0,0,0,0],"sum_hessian":[1.088E3,6.53E2,4.35E2,2.97E2,3.56E2,2.53E2,1.82E2,2.49E2,4.8E1,1.98E2,1.58E2,1.68E2,8.5E1,1.45E2,3.7E1,2.39E2,1E1,1.7E1,3.1E1,1.02E2,9.6E1,1.18E2,4E1,4E0,1.64E2,1.03E2,4.2E1,4E0,6E0,6E0,1.1E1,2.4E1,7E0,8.8E1,1.4E1,9.1E1,5E0,7.1E1,4.7E1,4E0,3.6E1,1.1E1,1.53E2,3E0,3E0,3E0,3E0,7E0,4E0,4E0,2E1,8.5E1,3E0,2E0,1.2E1,6.3E1,2.8E1,4.8E1,2.3E1,2E1,2.7E1,3.4E1,2E0,4E0,7E0,3E0,1.5E2],"tree_param":{"num_deleted":"0","num_feature":"2","num_nodes":"67","size_leaf_vector":"1"}},{"base_weights":[-6.667168E-4,-6.43235E-2,1.6097376E-1,-1.1288667E-1,9.198716E-3,1.3867605E-1,3.412343E-2,-1.3250403E-1,-7.6059E-2,-2.1279582E-3,2.9812014E-2,7.808711E-2,1.7415272E-1,-1.3551235E-1,-1.0926131E-1,-8.091455E-2,-6.040106E-2,1.3706582E-2,-4.2156638E-3,7.143704E-2,2.0891497E-2,5.44163E-2,9.2862695E-2,1.4593626E-2,1.8686926E-2,-1.3151862E-1,-2.6392115E-2,9.681344E-3,-1.3053593E-1,-7.4248224E-2,-1.8077819E-2,5.6837E-3,-8.3295316E-2,-9.960564E-2,-7.340806E-4,3.203405E-2,1.3440873E-1,-5.533516E-3,2.4985153E-2,6.9224956E-3,4.362538E-2,9.588345E-3,5.543059E-2,-1.3430861E-2,-3.9095744E-3,-8.753926E-4,2.5696277E-3,-2.1608902E-2,-1.1528599E-2,-8.113591E-3,7.563609E-4,-1.3454342E-3,1.6934514E-3,-2.0165492E-2,-6.40976E-3,-2.6749521E-3,-1.4756036E-2,3.954227E-3,-4.5982833E-4,9.137704E-3,-1.6477443E-3,1.854351E-2,4.9780193E-3,3.8687165E-3,1.9541562E-3,-6.189332E-4,5.011011E-3,1.6016349E-3,8.098719E-3],"categories":[],"categories_nodes":[],"categories_segments":[],"categories_sizes":[],"default_left":[0,0,0,0,0,0,0,0,0,0,0,0,0,0,0,0,0,0,0,0,0,0,0,0,0,0,0,0,0,0,0,0,0,0,0,0,0,0,0,0,0,0,0,0,0,0,0,0,0,0,0,0,0,0,0,0,0,0,0,0,0,0,0,0,0,0,0,0,0],"id":30,"left_children":[1,3,5,7,9,11,-1,13,15,17,19,21,23,25,27,29,31,-1,33,35,37,39,41,-1,-1,43,-1,45,47,49,-1,51,53,55,57,59,61,-1,63,-1,65,-1,67,-1,-1,-1,-1,-1,-1,-1,-1,-1,-1,-1,-1,-1,-1,-1,-1,-1,-1,-1,-1,-1,-1,-1,-1,-1,-1],"loss_changes":[1.1143607E1,2.775295E0,1.1826138E0,3.2803392E-1,7.244227E-2,5.753617E-1,0E0,6.4501762E-3,7.65723E-3,5.8987536E-2,3.9352424E-2,3.097105E-2,3.4445763E-2,1.0118866E-1,1.024822E-1,6.846154E-2,6.553076E-2,0E0,6.6016406E-2,4.2838514E-2,3.0090764E-2,3.6915988E-3,1.6956329E-3,0E0,0E0,6.1534405E-2,0E0,2.2916207E-3,1.9447088E-2,6.654245E-2,0E0,2.8116654E-3,5.9785873E-2,2.0509392E-2,3.021957E-2,3.8930282E-2,2.0997018E-2,0E0,5.80775E-3,0E0,9.032093E-3,0E0,5.7539362E-3,0E0,0E0,0E0,0E0,0E0,0E0,0E0,0E0,0E0,0E0,0E0,0E0,0E0,0E0,0E0,0E0,0E0,0E0,0E0,0E0,0E0,0E0,0E0,0E0,0E0,0E0],"parents":[2147483647,0,0,1,1,2,2,3,3,4,4,5,5,7,7,8,8,9,9,10,10,11,11,12,12,13,13,14,14,15,15,16,16,18,18,19,19,20,20,21,21,22,22,25,25,27,27,28,28,29,29,31,31,32,32,33,33,34,34,35,35,36,36,38,38,40,40,42,42],"right_children":[2,4,6,8,10,12,-1,14,16,18,20,22,24,26,28,30,32,-1,34,36,38,40,42,-1,-1,44,-1,46,48,50,-1,52,54,56,58,60,62,-1,64,-1,66,-1,68,-1,-1,-1,-1,-1,-1,-1,-1,-1,-1,-1,-1,-1,-1,-1,-1,-1,-1,-1,-1,-1,-1,-1,-1,-1,-1],"split_conditions":[7.30945E-1,-3.2588202E-1,1.6373839E0,-9.556289E-1,4.0372965E-1,1.108409E0,3.412343E-2,-1.1318178E0,-4.773356E-1,-3.0110827E-1,4.5464152E-1,8.395087E-1,1.284119E0,-1.1570288E0,-1.0819743E0,-5.026335E-1,-4.269769E-1,1.3706582E-2,-2.7598593E-1,4.4908473E-1,4.7910044E-1,7.5620246E-1,1.0584217E0,1.4593626E-2,1.8686926E-2,-1.1822137E0,-2.6392115E-2,-1.1066762E0,-1.081504E0,-5.5114657E-1,-1.8077819E-2,-4.5233804E-1,-4.2678243E-1,-2.969017E-1,-2.0061381E-1,4.2900956E-1,4.541451E-1,-5.533516E-3,5.5402553E-1,6.9224956E-3,7.563535E-1,9.588345E-3,1.083325E0,-1.3430861E-2,-3.9095744E-3,-8.753926E-4,2.5696277E-3,-2.1608902E-2,-1.1528599E-2,-8.113591E-3,7.563609E-4,-1.3454342E-3,1.6934514E-3,-2.0165492E-2,-6.40976E-3,-2.6749521E-3,-1.4756036E-2,3.954227E-3,-4.5982833E-4,9.137704E-3,-1.6477443E-3,1.854351E-2,4.9780193E-3,3.8687165E-3,1.9541562E-3,-6.189332E-4,5.011011E-3,1.6016349E-3,8.098719E-3],"split_indices":[0,0,0,0,0,0,0,0,0,0,0,0,0,0,0,0,0,0,0,0,0,0,0,0,0,0,0,0,0,0,0,0,0,0,0,0,0,0,0,0,0,0,0,0,0,0,0,0,0,0,0,0,0,0,0,0,0,0,0,0,0,0,0,0,0,0,0,0,0],"split_type":[0,0,0,0,0,0,0,0,0,0,0,0,0,0,0,0,0,0,0,0,0,0,0,0,0,0,0,0,0,0,0,0,0,0,0,0,0,0,0,0,0,0,0,0,0,0,0,0,0,0,0,0,0,0,0,0,0,0,0,0,0,0,0,0,0,0,0,0,0],"sum_hessian":[1.081E3,7.76E2,3.05E2,4.67E2,3.09E2,2.73E2,3.2E1,3.03E2,1.64E2,2E2,1.09E2,1.02E2,1.71E2,2.64E2,3.9E1,1.22E2,4.2E1,2E0,1.98E2,1.8E1,9.1E1,4.1E1,6.1E1,5.7E1,1.14E2,2.58E2,6E0,6E0,3.3E1,1.16E2,6E0,1.1E1,3.1E1,6E0,1.92E2,1.2E1,6E0,4E0,8.7E1,1.5E1,2.6E1,5.5E1,6E0,2.5E2,8E0,3E0,3E0,3E0,3E1,1.07E2,9E0,4E0,7E0,3E0,2.8E1,3E0,3E0,1.6E1,1.76E2,5E0,7E0,3E0,3E0,2.3E1,6.4E1,3E0,2.3E1,3E0,3E0],"tree_param":{"num_deleted":"0","num_feature":"2","num_nodes":"69","size_leaf_vector":"1"}},{"base_weights":[4.382032E-3,-6.6383414E-2,1.3327137E-1,-1.1513901E-1,-2.135027E-2,6.535825E-2,1.8652979E-1,-1.22428335E-1,-8.749992E-2,-4.605394E-2,2.0144137E-3,4.7663305E-2,9.031233E-2,1.5602049E-1,2.672917E-1,-1.1932611E-1,-1.9603223E-2,-7.897182E-2,-2.1486672E-2,-4.216595E-2,-8.2298435E-2,5.69916E-2,-2.7640383E-3,3.9600115E-2,5.6443203E-2,9.396114E-3,2.481525E-3,1.4537452E-1,1.7262531E-2,2.4564754E-2,3.5543304E-2,-1.2106331E-1,-8.94847E-4,-9.115965E-2,-2.3709085E-2,-4.5475148E-2,7.0176027E-3,-1.3028122E-2,-3.0502811E-2,1.3666603E-3,7.150373E-2,-6.0010166E-3,1.1461944E-5,5.175977E-2,8.659748E-3,6.487418E-2,3.4694236E-2,1.4974988E-2,1.0008025E-2,-1.2248399E-2,-8.279795E-3,-1.055691E-3,-1.0410383E-2,4.159173E-3,-7.788366E-3,-2.9605252E-3,-5.305257E-3,1.0400449E-3,-6.530551E-3,8.6560175E-3,3.6123954E-3,1.10185025E-2,-3.3890273E-4,3.8123266E-3,1.3959065E-2,1.7377997E-3,-3.3205302E-4,9.616169E-3,5.832162E-3,-8.782923E-4,4.6295435E-3],"categories":[],"categories_nodes":[],"categories_segments":[],"categories_sizes":[],"default_left":[0,0,0,0,0,0,0,0,0,0,0,0,0,0,0,0,0,0,0,0,0,0,0,0,0,0,0,0,0,0,0,0,0,0,0,0,0,0,0,0,0,0,0,0,0,0,0,0,0,0,0,0,0,0,0,0,0,0,0,0,0,0,0,0,0,0,0,0,0,0,0],"id":31,"left_children":[1,3,5,7,9,11,13,15,17,19,21,23,25,27,29,31,-1,33,-1,35,37,39,41,43,45,-1,-1,47,-1,-1,-1,49,-1,51,53,55,-1,-1,57,-1,59,-1,61,63,65,67,69,-1,-1,-1,-1,-1,-1,-1,-1,-1,-1,-1,-1,-1,-1,-1,-1,-1,-1,-1,-1,-1,-1,-1,-1],"loss_changes":[9.804705E0,1.5213003E0,1.3658648E0,5.637741E-2,2.090368E-1,7.0319235E-2,4.8312664E-1,3.620386E-2,6.2323987E-2,2.133137E-2,4.9283523E-2,4.9150437E-3,1.4158428E-2,2.6578903E-3,2.1430492E-2,4.7428608E-2,0E0,4.498604E-2,0E0,6.3044906E-2,3.5790823E-2,8.453857E-3,2.7488079E-2,2.0620331E-2,6.1840266E-3,0E0,0E0,5.2273273E-3,0E0,0E0,0E0,3.3950806E-3,0E0,5.8371156E-2,5.276633E-2,1.730907E-2,0E0,0E0,1.3491102E-2,0E0,2.7327277E-3,0E0,6.256432E-2,4.2586595E-2,1.8333038E-3,9.521246E-4,7.972414E-3,0E0,0E0,0E0,0E0,0E0,0E0,0E0,0E0,0E0,0E0,0E0,0E0,0E0,0E0,0E0,0E0,0E0,0E0,0E0,0E0,0E0,0E0,0E0,0E0],"parents":[2147483647,0,0,1,1,2,2,3,3,4,4,5,5,6,6,7,7,8,8,9,9,10,10,11,11,12,12,13,13,14,14,15,15,17,17,19,19,20,20,21,21,22,22,23,23,24,24,27,27,31,31,33,33,34,34,35,35,38,38,40,40,42,42,43,43,44,44,45,45,46,46],"right_children":[2,4,6,8,10,12,14,16,18,20,22,24,26,28,30,32,-1,34,-1,36,38,40,42,44,46,-1,-1,48,-1,-1,-1,50,-1,52,54,56,-1,-1,58,-1,60,-1,62,64,66,68,70,-1,-1,-1,-1,-1,-1,-1,-1,-1,-1,-1,-1,-1,-1,-1,-1,-1,-1,-1,-1,-1,-1,-1,-1],"split_conditions":[5.548344E-1,-8.549185E-1,1.083325E0,-1.1318178E0,-9.988215E-2,8.31586E-1,1.5614756E0,-1.1570288E0,-8.5494345E-1,-1.7176431E-1,-7.448068E-2,7.059053E-1,1.0584217E0,1.3600016E0,1.7882942E0,-1.1821892E0,-1.9603223E-2,-9.05273E-1,-2.1486672E-2,-1.7530943E-1,-1.251141E-1,-9.965701E-2,-4.939313E-2,6.8071634E-1,7.8150946E-1,9.396114E-3,2.481525E-3,1.3353267E0,1.7262531E-2,2.4564754E-2,3.5543304E-2,-1.232549E0,-8.94847E-4,-1.0819743E0,-8.801711E-1,-6.0320646E-1,7.0176027E-3,-1.3028122E-2,-1.2482352E-1,1.3666603E-3,-7.4531004E-2,-6.0010166E-3,-2.4302853E-2,6.805754E-1,7.0583576E-1,7.0606554E-1,8.0637914E-1,1.4974988E-2,1.0008025E-2,-1.2248399E-2,-8.279795E-3,-1.055691E-3,-1.0410383E-2,4.159173E-3,-7.788366E-3,-2.9605252E-3,-5.305257E-3,1.0400449E-3,-6.530551E-3,8.6560175E-3,3.6123954E-3,1.10185025E-2,-3.3890273E-4,3.8123266E-3,1.3959065E-2,1.7377997E-3,-3.3205302E-4,9.616169E-3,5.832162E-3,-8.782923E-4,4.6295435E-3],"split_indices":[0,0,0,0,0,0,0,0,0,0,0,0,0,0,0,0,0,0,0,0,0,0,0,0,0,0,0,0,0,0,0,0,0,0,0,0,0,0,0,0,0,0,0,0,0,0,0,0,0,0,0,0,0,0,0,0,0,0,0,0,0,0,0,0,0,0,0,0,0,0,0],"split_type":[0,0,0,0,0,0,0,0,0,0,0,0,0,0,0,0,0,0,0,0,0,0,0,0,0,0,0,0,0,0,0,0,0,0,0,0,0,0,0,0,0,0,0,0,0,0,0,0,0,0,0,0,0,0,0,0,0,0,0,0,0,0,0,0,0,0,0,0,0,0,0],"sum_hessian":[1.073E3,6.93E2,3.8E2,3.32E2,3.61E2,1.68E2,2.12E2,2.6E2,7.2E1,1.75E2,1.86E2,1E2,6.8E1,1.56E2,5.6E1,2.52E2,8E0,6.9E1,3E0,1.6E2,1.5E1,1.4E1,1.72E2,5.5E1,4.5E1,6.4E1,4E0,1.01E2,5.5E1,4.8E1,8E0,2.48E2,4E0,5.6E1,1.3E1,1.56E2,4E0,7E0,8E0,4E0,1E1,7E0,1.65E2,3.9E1,1.6E1,3.1E1,1.4E1,9E1,1.1E1,2.37E2,1.1E1,8E0,4.8E1,6E0,7E0,5.2E1,1.04E2,4E0,4E0,6E0,4E0,4E0,1.61E2,3.5E1,4E0,9E0,7E0,3E0,2.8E1,3E0,1.1E1],"tree_param":{"num_deleted":"0","num_feature":"2","num_nodes":"71","size_leaf_vector":"1"}},{"base_weights":[-2.7150696E-3,3.4636625E-3,-2.2467587E-2,5.9162513E-3,-3.2961487E-3,-3.790248E-2,-2.6565534E-3,3.066639E-3,1.4801115E-2,-1.3382108E-3,6.3595746E-4,-1.0476898E-3,-4.647129E-2,1.9302303E-2,-1.645725E-2,7.416555E-3,-3.6365124E-3,1.2306712E-3,1.5903208E-2,-1.956972E-3,5.857398E-4,-3.9756887E-2,-7.6041147E-3,4.066911E-3,8.683414E-3,-4.8342845E-3,-1.0628697E-2,8.917581E-3,6.4304234E-3,-2.1044458E-3,-8.3201873E-4,1.7502947E-3,1.3658771E-3,1.4025299E-4,-5.659871E-4,-4.3417957E-2,-2.4788452E-3,5.5593173E-3,1.4142207E-3,1.8361649E-2,-2.3564566E-2,6.552639E-4,1.3010663E-3,6.73602E-4,5.624526E-4,-5.9989374E-4,4.235812E-4,-3.7890037E-3,-4.9305307E-3,4.109973E-4,6.424606E-4,-1.9671181E-3,3.6066517E-3,-9.22548E-3,-1.0290982E-3],"categories":[],"categories_nodes":[],"categories_segments":[],"categories_sizes":[],"default_left":[0,0,0,0,0,0,0,0,0,0,0,0,0,0,0,0,0,0,0,0,0,0,0,0,0,0,0,0,0,0,0,0,0,0,0,0,0,0,0,0,0,0,0,0,0,0,0,0,0,0,0,0,0,0,0],"id":32,"left_children":[1,3,5,7,9,11,13,15,17,-1,19,-1,21,23,25,27,29,-1,31,33,-1,35,-1,-1,37,-1,39,41,43,45,-1,-1,-1,-1,-1,47,-1,49,-1,51,53,-1,-1,-1,-1,-1,-1,-1,-1,-1,-1,-1,-1,-1,-1],"loss_changes":[1.3676879E-1,1.41779985E-2,8.1542894E-2,1.5829263E-2,9.050776E-3,3.4763798E-2,3.607727E-2,1.3906249E-2,2.2213906E-4,0E0,2.2453691E-3,0E0,1.9610852E-2,1.0083875E-2,1.3053E-2,3.7043728E-4,1.3315226E-3,0E0,1.2716465E-4,1.3887665E-3,0E0,4.1297674E-3,0E0,0E0,4.671004E-4,0E0,2.4058647E-2,9.988947E-4,5.9506856E-6,3.5563777E-3,0E0,0E0,0E0,0E0,0E0,5.726963E-4,0E0,1.1852826E-6,0E0,1.4176795E-2,3.91683E-2,0E0,0E0,0E0,0E0,0E0,0E0,0E0,0E0,0E0,0E0,0E0,0E0,0E0,0E0],"parents":[2147483647,0,0,1,1,2,2,3,3,4,4,5,5,6,6,7,7,8,8,10,10,12,12,13,13,14,14,15,15,16,16,18,18,19,19,21,21,24,24,26,26,27,27,28,28,29,29,35,35,37,37,39,39,40,40],"right_children":[2,4,6,8,10,12,14,16,18,-1,20,-1,22,24,26,28,30,-1,32,34,-1,36,-1,-1,38,-1,40,42,44,46,-1,-1,-1,-1,-1,48,-1,50,-1,52,54,-1,-1,-1,-1,-1,-1,-1,-1,-1,-1,-1,-1,-1,-1],"split_conditions":[5.205114E-1,9.368324E-2,1.0540465E0,-2.2643787E-1,2.0039028E-1,6.272184E-1,1.4808747E0,-6.53266E-1,-1.1973083E-1,-1.3382108E-3,4.1380435E-1,-1.0476898E-3,9.4733953E-1,1.1607536E0,1.5875818E0,-9.733871E-1,-3.331449E-1,1.2306712E-3,-1.3023795E-2,3.0709732E-1,5.857398E-4,8.406325E-1,-7.6041147E-3,4.066911E-3,1.3741677E0,-4.8342845E-3,1.9077028E0,-1.0800941E0,-7.5997305E-1,-4.3985194E-1,-8.3201873E-4,1.7502947E-3,1.3658771E-3,1.4025299E-4,-5.659871E-4,7.3392546E-1,-2.4788452E-3,1.2674606E0,1.4142207E-3,1.6942887E0,2.1211169E0,6.552639E-4,1.3010663E-3,6.73602E-4,5.624526E-4,-5.9989374E-4,4.235812E-4,-3.7890037E-3,-4.9305307E-3,4.109973E-4,6.424606E-4,-1.9671181E-3,3.6066517E-3,-9.22548E-3,-1.0290982E-3],"split_indices":[1,1,1,1,1,1,1,1,1,0,1,0,1,1,1,1,1,0,1,1,0,1,0,0,1,0,1,1,1,1,0,0,0,0,0,1,0,1,0,1,1,0,0,0,0,0,0,0,0,0,0,0,0,0,0],"split_type":[0,0,0,0,0,0,0,0,0,0,0,0,0,0,0,0,0,0,0,0,0,0,0,0,0,0,0,0,0,0,0,0,0,0,0,0,0,0,0,0,0,0,0,0,0,0,0,0,0,0,0,0,0,0,0],"sum_hessian":[1.119E3,8.53E2,2.66E2,6.26E2,2.27E2,1.49E2,1.17E2,4.75E2,1.51E2,6.3E1,1.64E2,3.6E1,1.13E2,4.5E1,7.2E1,2.88E2,1.87E2,5E1,1.01E2,1.1E2,5.4E1,9.4E1,1.9E1,1.4E1,3.1E1,1E1,6.2E1,1.11E2,1.77E2,1.42E2,4.5E1,5.5E1,4.6E1,5.8E1,5.2E1,7.4E1,2E1,2.1E1,1E1,1.9E1,4.3E1,7.2E1,3.9E1,1.23E2,5.4E1,8.8E1,5.4E1,4.2E1,3.2E1,1E1,1.1E1,6E0,1.3E1,6E0,3.7E1],"tree_param":{"num_deleted":"0","num_feature":"2","num_nodes":"55","size_leaf_vector":"1"}},{"base_weights":[1.5428233E-4,-5.866737E-2,1.2805673E-1,-1.0089297E-1,-1.3363572E-2,1.0002224E-1,2.2727346E-1,-1.06851E-1,-7.6311655E-2,-4.4572867E-2,6.983214E-3,6.457373E-2,1.3105293E-2,1.7672887E-2,2.5362495E-2,-1.05183E-1,-2.0774057E-2,-3.1686105E-2,-1.0019066E-1,4.215175E-2,-4.9346574E-2,-7.993108E-3,1.4628699E-2,4.9247734E-2,8.112238E-2,-1.01018725E-2,-1.21247165E-1,-5.66103E-2,8.340701E-3,-8.573275E-2,-1.2917413E-1,-1.0024578E-3,1.3245381E-2,-1.4777306E-2,-4.6015352E-2,5.9411544E-3,-3.9754964E-2,3.1566553E-2,1.0160628E-2,1.27879875E-2,4.244145E-2,8.638452E-2,5.7662193E-2,-4.3689854E-2,-9.608621E-3,-4.543107E-3,-9.736276E-3,4.0798383E-3,-4.5259725E-3,-1.0204771E-2,1.5569131E-3,-1.6557796E-2,-6.3915784E-3,7.2968734E-4,-4.948571E-3,-1.06433676E-4,7.3406734E-3,-5.3089526E-3,-8.116478E-4,1.3265208E-3,7.2795786E-3,-2.3580815E-3,1.4605046E-3,2.872117E-3,5.0298595E-3,6.948863E-3,1.0974521E-2,-1.000014E-3,7.702466E-3],"categories":[],"categories_nodes":[],"categories_segments":[],"categories_sizes":[],"default_left":[0,0,0,0,0,0,0,0,0,0,0,0,0,0,0,0,0,0,0,0,0,0,0,0,0,0,0,0,0,0,0,0,0,0,0,0,0,0,0,0,0,0,0,0,0,0,0,0,0,0,0,0,0,0,0,0,0,0,0,0,0,0,0,0,0,0,0,0,0],"id":33,"left_children":[1,3,5,7,9,11,13,15,17,19,21,23,-1,-1,-1,25,-1,27,29,31,33,35,37,39,41,-1,43,45,47,49,51,-1,-1,-1,53,55,57,59,61,-1,63,65,67,-1,-1,-1,-1,-1,-1,-1,-1,-1,-1,-1,-1,-1,-1,-1,-1,-1,-1,-1,-1,-1,-1,-1,-1,-1,-1],"loss_changes":[8.215579E0,1.4295607E0,9.340997E-1,4.852438E-2,2.3018447E-1,2.8853536E-1,5.507183E-2,3.0149221E-2,8.100879E-2,6.128174E-2,2.5307205E-2,2.8468907E-2,0E0,0E0,0E0,8.222103E-3,0E0,2.9403612E-2,1.0296702E-2,3.9020836E-2,3.7791908E-2,3.3429544E-2,1.0728478E-2,3.150089E-2,2.4258792E-3,0E0,4.1866124E-1,3.7771612E-3,2.272347E-2,6.273997E-2,2.5051743E-2,0E0,0E0,0E0,2.496773E-2,2.5127497E-2,9.27246E-3,2.1670863E-2,1.7889846E-2,0E0,5.5625066E-3,1.0924846E-2,1.911179E-2,0E0,0E0,0E0,0E0,0E0,0E0,0E0,0E0,0E0,0E0,0E0,0E0,0E0,0E0,0E0,0E0,0E0,0E0,0E0,0E0,0E0,0E0,0E0,0E0,0E0,0E0],"parents":[2147483647,0,0,1,1,2,2,3,3,4,4,5,5,6,6,7,7,8,8,9,9,10,10,11,11,15,15,17,17,18,18,19,19,20,20,21,21,22,22,23,23,24,24,26,26,27,27,28,28,29,29,30,30,34,34,35,35,36,36,37,37,38,38,40,40,41,41,42,42],"right_children":[2,4,6,8,10,12,14,16,18,20,22,24,-1,-1,-1,26,-1,28,30,32,34,36,38,40,42,-1,44,46,48,50,52,-1,-1,-1,54,56,58,60,62,-1,64,66,68,-1,-1,-1,-1,-1,-1,-1,-1,-1,-1,-1,-1,-1,-1,-1,-1,-1,-1,-1,-1,-1,-1,-1,-1,-1,-1],"split_conditions":[6.805754E-1,-6.284268E-1,1.4107708E0,-9.556289E-1,-4.939313E-2,1.0580786E0,1.5625983E0,-9.556964E-1,-8.637505E-1,-5.9736896E-1,2.0198545E-1,8.31586E-1,1.3105293E-2,1.7672887E-2,2.5362495E-2,-1.2334164E0,-2.0774057E-2,-9.05273E-1,-7.03861E-1,-6.0320646E-1,-5.7800806E-1,1.2688448E-1,2.779908E-1,6.8071634E-1,9.828547E-1,-1.01018725E-2,-1.232549E0,-9.0531707E-1,-8.801711E-1,-7.2909856E-1,-6.786929E-1,-1.0024578E-3,1.3245381E-2,-1.4777306E-2,-5.5285287E-1,1.2684895E-1,1.524811E-1,2.5267085E-1,3.2884723E-1,1.27879875E-2,7.30945E-1,9.323914E-1,1.0079608E0,-4.3689854E-2,-9.608621E-3,-4.543107E-3,-9.736276E-3,4.0798383E-3,-4.5259725E-3,-1.0204771E-2,1.5569131E-3,-1.6557796E-2,-6.3915784E-3,7.2968734E-4,-4.948571E-3,-1.06433676E-4,7.3406734E-3,-5.3089526E-3,-8.116478E-4,1.3265208E-3,7.2795786E-3,-2.3580815E-3,1.4605046E-3,2.872117E-3,5.0298595E-3,6.948863E-3,1.0974521E-2,-1.000014E-3,7.702466E-3],"split_indices":[0,0,0,0,0,0,0,0,0,0,0,0,0,0,0,0,0,0,0,0,0,0,0,0,0,0,0,0,0,0,0,0,0,0,0,0,0,0,0,0,0,0,0,0,0,0,0,0,0,0,0,0,0,0,0,0,0,0,0,0,0,0,0,0,0,0,0,0,0],"split_type":[0,0,0,0,0,0,0,0,0,0,0,0,0,0,0,0,0,0,0,0,0,0,0,0,0,0,0,0,0,0,0,0,0,0,0,0,0,0,0,0,0,0,0,0,0,0,0,0,0,0,0,0,0,0,0,0,0,0,0,0,0,0,0,0,0,0,0,0,0],"sum_hessian":[1.09E3,7.47E2,3.43E2,3.86E2,3.61E2,2.69E2,7.4E1,3.08E2,7.8E1,1.42E2,2.19E2,1.27E2,1.42E2,2.8E1,4.6E1,3.05E2,3E0,2.8E1,5E1,7E0,1.35E2,7.4E1,1.45E2,6.8E1,5.9E1,2.48E2,5.7E1,1.7E1,1.1E1,3.6E1,1.4E1,5E0,2E0,3E0,1.32E2,5.2E1,2.2E1,2.9E1,1.16E2,4E0,6.4E1,4.6E1,1.3E1,3E0,5.4E1,1.5E1,2E0,7E0,4E0,3.1E1,5E0,8E0,6E0,8E0,1.24E2,4.8E1,4E0,1.5E1,7E0,2.1E1,8E0,1.3E1,1.03E2,2.5E1,3.9E1,2.9E1,1.7E1,3E0,1E1],"tree_param":{"num_deleted":"0","num_feature":"2","num_nodes":"69","size_leaf_vector":"1"}},{"base_weights":[1.261078E-3,8.327753E-3,-1.6106755E-2,1.7345801E-2,4.363769E-3,-2.9830186E-2,1.5510554E-2,1.8663146E-2,1.3886965E-3,5.1414403E-3,9.403888E-4,-1.1300828E-3,-3.5073683E-2,5.552088E-2,-7.3260916E-3,1.5908955E-3,2.02893E-2,3.5199611E-3,1.4762967E-3,-8.05181E-5,2.5364742E-4,-4.3463103E-2,-2.1068346E-2,2.399994E-3,6.7169264E-2,3.9990866E-3,-4.013592E-2,2.3610196E-3,1.7571172E-3,5.4469886E-3,2.9250703E-4,-3.2714047E-3,-7.2238543E-3,-1.9282543E-3,-5.2380967E-3,1.2172761E-2,3.9189477E-2,-3.025321E-3,1.290761E-2,-1.2676875E-2,-2.590915E-2,3.7894223E-4,1.1385427E-3,-5.875986E-4,3.2147564E-4,-1.5453339E-5,-4.28463E-4,1.1310626E-3,7.2624213E-3,1.1102389E-2,4.372709E-4,-4.4628605E-4,-4.4116797E-3],"categories":[],"categories_nodes":[],"categories_segments":[],"categories_sizes":[],"default_left":[0,0,0,0,0,0,0,0,0,0,0,0,0,0,0,0,0,0,0,0,0,0,0,0,0,0,0,0,0,0,0,0,0,0,0,0,0,0,0,0,0,0,0,0,0,0,0,0,0,0,0,0,0],"id":34,"left_children":[1,3,5,7,9,11,13,15,-1,17,19,-1,21,23,25,-1,27,29,-1,-1,-1,31,33,-1,35,37,39,-1,-1,41,43,-1,-1,45,-1,-1,47,-1,49,-1,51,-1,-1,-1,-1,-1,-1,-1,-1,-1,-1,-1,-1],"loss_changes":[1.3366745E-1,2.75928E-2,1.3714053E-1,8.1614405E-4,1.4301259E-3,2.097854E-2,8.8122115E-2,4.296489E-4,0E0,6.7969197E-3,2.8343624E-4,0E0,1.917623E-2,1.1238806E-2,2.3198294E-2,0E0,5.0585344E-4,2.3431173E-3,0E0,0E0,0E0,3.0423522E-2,3.9454535E-2,0E0,3.339284E-2,